digraph Tree {
node [shape=box] ;
0 [label="X[25] <= 0.5\ngini = 0.374\nsamples = 30162\nvalue = [22654, 7508]"] ;
1 [label="X[17] <= 0.5\ngini = 0.128\nsamples = 16097\nvalue = [14988, 1109]"] ;
0 -> 1 [labeldistance=2.5, labelangle=45, headlabel="True"] ;
2 [label="X[19] <= 0.5\ngini = 0.122\nsamples = 15980\nvalue = [14935, 1045]"] ;
1 -> 2 ;
3 [label="X[21] <= 0.5\ngini = 0.107\nsamples = 15295\nvalue = [14430, 865]"] ;
2 -> 3 ;
4 [label="X[16] <= 0.5\ngini = 0.099\nsamples = 15139\nvalue = [14349, 790]"] ;
3 -> 4 ;
5 [label="X[27] <= 0.5\ngini = 0.066\nsamples = 12694\nvalue = [12258, 436]"] ;
4 -> 5 ;
6 [label="X[56] <= 0.5\ngini = 0.107\nsamples = 5218\nvalue = [4922, 296]"] ;
5 -> 6 ;
7 [label="X[49] <= 0.5\ngini = 0.064\nsamples = 3332\nvalue = [3221, 111]"] ;
6 -> 7 ;
8 [label="X[33] <= 0.5\ngini = 0.062\nsamples = 3324\nvalue = [3217, 107]"] ;
7 -> 8 ;
9 [label="X[68] <= 0.5\ngini = 0.05\nsamples = 2950\nvalue = [2875, 75]"] ;
8 -> 9 ;
10 [label="X[3] <= 0.5\ngini = 0.049\nsamples = 2949\nvalue = [2875, 74]"] ;
9 -> 10 ;
11 [label="X[39] <= 0.5\ngini = 0.047\nsamples = 2927\nvalue = [2857, 70]"] ;
10 -> 11 ;
12 [label="X[66] <= 0.5\ngini = 0.04\nsamples = 2720\nvalue = [2665, 55]"] ;
11 -> 12 ;
13 [label="X[75] <= 0.5\ngini = 0.039\nsamples = 2716\nvalue = [2662, 54]"] ;
12 -> 13 ;
14 [label="X[88] <= 0.5\ngini = 0.038\nsamples = 2712\nvalue = [2659, 53]"] ;
13 -> 14 ;
15 [label="X[37] <= 0.5\ngini = 0.038\nsamples = 2708\nvalue = [2656, 52]"] ;
14 -> 15 ;
16 [label="X[4] <= 0.5\ngini = 0.047\nsamples = 2013\nvalue = [1965, 48]"] ;
15 -> 16 ;
17 [label="X[32] <= 0.5\ngini = 0.043\nsamples = 1961\nvalue = [1918, 43]"] ;
16 -> 17 ;
18 [label="X[41] <= 0.5\ngini = 0.039\nsamples = 1855\nvalue = [1818, 37]"] ;
17 -> 18 ;
19 [label="X[40] <= 0.5\ngini = 0.032\nsamples = 1514\nvalue = [1489, 25]"] ;
18 -> 19 ;
20 [label="X[67] <= 0.5\ngini = 0.031\nsamples = 1484\nvalue = [1461, 23]"] ;
19 -> 20 ;
21 [label="X[30] <= 0.5\ngini = 0.029\nsamples = 1474\nvalue = [1452, 22]"] ;
20 -> 21 ;
22 [label="X[0] <= 0.5\ngini = 0.015\nsamples = 523\nvalue = [519, 4]"] ;
21 -> 22 ;
23 [label="X[45] <= 0.5\ngini = 0.012\nsamples = 510\nvalue = [507, 3]"] ;
22 -> 23 ;
24 [label="gini = 0.0\nsamples = 295\nvalue = [295, 0]"] ;
23 -> 24 ;
25 [label="X[18] <= 0.5\ngini = 0.028\nsamples = 215\nvalue = [212, 3]"] ;
23 -> 25 ;
26 [label="gini = 0.0\nsamples = 122\nvalue = [122, 0]"] ;
25 -> 26 ;
27 [label="X[43] <= 0.5\ngini = 0.062\nsamples = 93\nvalue = [90, 3]"] ;
25 -> 27 ;
28 [label="X[42] <= 0.5\ngini = 0.045\nsamples = 87\nvalue = [85, 2]"] ;
27 -> 28 ;
29 [label="X[23] <= 0.5\ngini = 0.027\nsamples = 73\nvalue = [72, 1]"] ;
28 -> 29 ;
30 [label="gini = 0.0\nsamples = 25\nvalue = [25, 0]"] ;
29 -> 30 ;
31 [label="X[36] <= 0.5\ngini = 0.041\nsamples = 48\nvalue = [47, 1]"] ;
29 -> 31 ;
32 [label="gini = 0.0\nsamples = 15\nvalue = [15, 0]"] ;
31 -> 32 ;
33 [label="X[54] <= 0.5\ngini = 0.059\nsamples = 33\nvalue = [32, 1]"] ;
31 -> 33 ;
34 [label="gini = 0.0\nsamples = 8\nvalue = [8, 0]"] ;
33 -> 34 ;
35 [label="X[95] <= 0.5\ngini = 0.077\nsamples = 25\nvalue = [24, 1]"] ;
33 -> 35 ;
36 [label="gini = 0.0\nsamples = 1\nvalue = [1, 0]"] ;
35 -> 36 ;
37 [label="gini = 0.08\nsamples = 24\nvalue = [23, 1]"] ;
35 -> 37 ;
38 [label="X[23] <= 0.5\ngini = 0.133\nsamples = 14\nvalue = [13, 1]"] ;
28 -> 38 ;
39 [label="gini = 0.0\nsamples = 3\nvalue = [3, 0]"] ;
38 -> 39 ;
40 [label="X[2] <= 0.5\ngini = 0.165\nsamples = 11\nvalue = [10, 1]"] ;
38 -> 40 ;
41 [label="gini = 0.0\nsamples = 3\nvalue = [3, 0]"] ;
40 -> 41 ;
42 [label="X[52] <= 0.5\ngini = 0.219\nsamples = 8\nvalue = [7, 1]"] ;
40 -> 42 ;
43 [label="gini = 0.245\nsamples = 7\nvalue = [6, 1]"] ;
42 -> 43 ;
44 [label="gini = 0.0\nsamples = 1\nvalue = [1, 0]"] ;
42 -> 44 ;
45 [label="X[1] <= 0.5\ngini = 0.278\nsamples = 6\nvalue = [5, 1]"] ;
27 -> 45 ;
46 [label="gini = 0.5\nsamples = 2\nvalue = [1, 1]"] ;
45 -> 46 ;
47 [label="gini = 0.0\nsamples = 4\nvalue = [4, 0]"] ;
45 -> 47 ;
48 [label="X[29] <= 0.5\ngini = 0.142\nsamples = 13\nvalue = [12, 1]"] ;
22 -> 48 ;
49 [label="gini = 0.0\nsamples = 8\nvalue = [8, 0]"] ;
48 -> 49 ;
50 [label="X[42] <= 0.5\ngini = 0.32\nsamples = 5\nvalue = [4, 1]"] ;
48 -> 50 ;
51 [label="gini = 0.0\nsamples = 2\nvalue = [2, 0]"] ;
50 -> 51 ;
52 [label="gini = 0.444\nsamples = 3\nvalue = [2, 1]"] ;
50 -> 52 ;
53 [label="X[15] <= 0.5\ngini = 0.037\nsamples = 951\nvalue = [933, 18]"] ;
21 -> 53 ;
54 [label="X[54] <= 0.5\ngini = 0.035\nsamples = 900\nvalue = [884, 16]"] ;
53 -> 54 ;
55 [label="X[45] <= 0.5\ngini = 0.013\nsamples = 156\nvalue = [155, 1]"] ;
54 -> 55 ;
56 [label="gini = 0.0\nsamples = 116\nvalue = [116, 0]"] ;
55 -> 56 ;
57 [label="X[22] <= 0.5\ngini = 0.049\nsamples = 40\nvalue = [39, 1]"] ;
55 -> 57 ;
58 [label="gini = 0.0\nsamples = 20\nvalue = [20, 0]"] ;
57 -> 58 ;
59 [label="X[2] <= 0.5\ngini = 0.095\nsamples = 20\nvalue = [19, 1]"] ;
57 -> 59 ;
60 [label="gini = 0.0\nsamples = 7\nvalue = [7, 0]"] ;
59 -> 60 ;
61 [label="X[51] <= 0.5\ngini = 0.142\nsamples = 13\nvalue = [12, 1]"] ;
59 -> 61 ;
62 [label="X[23] <= 0.5\ngini = 0.198\nsamples = 9\nvalue = [8, 1]"] ;
61 -> 62 ;
63 [label="gini = 0.0\nsamples = 1\nvalue = [1, 0]"] ;
62 -> 63 ;
64 [label="X[95] <= 0.5\ngini = 0.219\nsamples = 8\nvalue = [7, 1]"] ;
62 -> 64 ;
65 [label="gini = 0.0\nsamples = 1\nvalue = [1, 0]"] ;
64 -> 65 ;
66 [label="gini = 0.245\nsamples = 7\nvalue = [6, 1]"] ;
64 -> 66 ;
67 [label="gini = 0.0\nsamples = 4\nvalue = [4, 0]"] ;
61 -> 67 ;
68 [label="X[29] <= 0.5\ngini = 0.04\nsamples = 744\nvalue = [729, 15]"] ;
54 -> 68 ;
69 [label="X[22] <= 0.5\ngini = 0.035\nsamples = 619\nvalue = [608, 11]"] ;
68 -> 69 ;
70 [label="X[5] <= 0.5\ngini = 0.027\nsamples = 364\nvalue = [359, 5]"] ;
69 -> 70 ;
71 [label="X[23] <= 0.5\ngini = 0.023\nsamples = 339\nvalue = [335, 4]"] ;
70 -> 71 ;
72 [label="gini = 0.0\nsamples = 61\nvalue = [61, 0]"] ;
71 -> 72 ;
73 [label="X[18] <= 0.5\ngini = 0.028\nsamples = 278\nvalue = [274, 4]"] ;
71 -> 73 ;
74 [label="gini = 0.0\nsamples = 41\nvalue = [41, 0]"] ;
73 -> 74 ;
75 [label="X[1] <= 0.5\ngini = 0.033\nsamples = 237\nvalue = [233, 4]"] ;
73 -> 75 ;
76 [label="X[48] <= 0.5\ngini = 0.029\nsamples = 207\nvalue = [204, 3]"] ;
75 -> 76 ;
77 [label="X[45] <= 0.5\ngini = 0.019\nsamples = 105\nvalue = [104, 1]"] ;
76 -> 77 ;
78 [label="gini = 0.0\nsamples = 17\nvalue = [17, 0]"] ;
77 -> 78 ;
79 [label="X[2] <= 0.5\ngini = 0.022\nsamples = 88\nvalue = [87, 1]"] ;
77 -> 79 ;
80 [label="gini = 0.0\nsamples = 10\nvalue = [10, 0]"] ;
79 -> 80 ;
81 [label="X[95] <= 0.5\ngini = 0.025\nsamples = 78\nvalue = [77, 1]"] ;
79 -> 81 ;
82 [label="gini = 0.0\nsamples = 2\nvalue = [2, 0]"] ;
81 -> 82 ;
83 [label="gini = 0.026\nsamples = 76\nvalue = [75, 1]"] ;
81 -> 83 ;
84 [label="X[2] <= 0.5\ngini = 0.038\nsamples = 102\nvalue = [100, 2]"] ;
76 -> 84 ;
85 [label="gini = 0.0\nsamples = 7\nvalue = [7, 0]"] ;
84 -> 85 ;
86 [label="X[95] <= 0.5\ngini = 0.041\nsamples = 95\nvalue = [93, 2]"] ;
84 -> 86 ;
87 [label="gini = 0.0\nsamples = 5\nvalue = [5, 0]"] ;
86 -> 87 ;
88 [label="gini = 0.043\nsamples = 90\nvalue = [88, 2]"] ;
86 -> 88 ;
89 [label="X[45] <= 0.5\ngini = 0.064\nsamples = 30\nvalue = [29, 1]"] ;
75 -> 89 ;
90 [label="gini = 0.0\nsamples = 18\nvalue = [18, 0]"] ;
89 -> 90 ;
91 [label="gini = 0.153\nsamples = 12\nvalue = [11, 1]"] ;
89 -> 91 ;
92 [label="X[48] <= 0.5\ngini = 0.077\nsamples = 25\nvalue = [24, 1]"] ;
70 -> 92 ;
93 [label="gini = 0.0\nsamples = 12\nvalue = [12, 0]"] ;
92 -> 93 ;
94 [label="X[28] <= 0.5\ngini = 0.142\nsamples = 13\nvalue = [12, 1]"] ;
92 -> 94 ;
95 [label="X[95] <= 0.5\ngini = 0.198\nsamples = 9\nvalue = [8, 1]"] ;
94 -> 95 ;
96 [label="gini = 0.0\nsamples = 1\nvalue = [1, 0]"] ;
95 -> 96 ;
97 [label="gini = 0.219\nsamples = 8\nvalue = [7, 1]"] ;
95 -> 97 ;
98 [label="gini = 0.0\nsamples = 4\nvalue = [4, 0]"] ;
94 -> 98 ;
99 [label="X[26] <= 0.5\ngini = 0.046\nsamples = 255\nvalue = [249, 6]"] ;
69 -> 99 ;
100 [label="X[47] <= 0.5\ngini = 0.04\nsamples = 245\nvalue = [240, 5]"] ;
99 -> 100 ;
101 [label="X[2] <= 0.5\ngini = 0.033\nsamples = 235\nvalue = [231, 4]"] ;
100 -> 101 ;
102 [label="gini = 0.0\nsamples = 60\nvalue = [60, 0]"] ;
101 -> 102 ;
103 [label="X[28] <= 0.5\ngini = 0.045\nsamples = 175\nvalue = [171, 4]"] ;
101 -> 103 ;
104 [label="X[48] <= 0.5\ngini = 0.038\nsamples = 156\nvalue = [153, 3]"] ;
103 -> 104 ;
105 [label="X[46] <= 0.5\ngini = 0.029\nsamples = 69\nvalue = [68, 1]"] ;
104 -> 105 ;
106 [label="X[58] <= 0.5\ngini = 0.03\nsamples = 66\nvalue = [65, 1]"] ;
105 -> 106 ;
107 [label="gini = 0.03\nsamples = 65\nvalue = [64, 1]"] ;
106 -> 107 ;
108 [label="gini = 0.0\nsamples = 1\nvalue = [1, 0]"] ;
106 -> 108 ;
109 [label="gini = 0.0\nsamples = 3\nvalue = [3, 0]"] ;
105 -> 109 ;
110 [label="X[95] <= 0.5\ngini = 0.045\nsamples = 87\nvalue = [85, 2]"] ;
104 -> 110 ;
111 [label="gini = 0.0\nsamples = 1\nvalue = [1, 0]"] ;
110 -> 111 ;
112 [label="gini = 0.045\nsamples = 86\nvalue = [84, 2]"] ;
110 -> 112 ;
113 [label="X[48] <= 0.5\ngini = 0.1\nsamples = 19\nvalue = [18, 1]"] ;
103 -> 113 ;
114 [label="gini = 0.0\nsamples = 7\nvalue = [7, 0]"] ;
113 -> 114 ;
115 [label="gini = 0.153\nsamples = 12\nvalue = [11, 1]"] ;
113 -> 115 ;
116 [label="X[28] <= 0.5\ngini = 0.18\nsamples = 10\nvalue = [9, 1]"] ;
100 -> 116 ;
117 [label="X[2] <= 0.5\ngini = 0.219\nsamples = 8\nvalue = [7, 1]"] ;
116 -> 117 ;
118 [label="gini = 0.0\nsamples = 2\nvalue = [2, 0]"] ;
117 -> 118 ;
119 [label="gini = 0.278\nsamples = 6\nvalue = [5, 1]"] ;
117 -> 119 ;
120 [label="gini = 0.0\nsamples = 2\nvalue = [2, 0]"] ;
116 -> 120 ;
121 [label="X[45] <= 0.5\ngini = 0.18\nsamples = 10\nvalue = [9, 1]"] ;
99 -> 121 ;
122 [label="gini = 0.0\nsamples = 7\nvalue = [7, 0]"] ;
121 -> 122 ;
123 [label="gini = 0.444\nsamples = 3\nvalue = [2, 1]"] ;
121 -> 123 ;
124 [label="X[18] <= 0.5\ngini = 0.062\nsamples = 125\nvalue = [121, 4]"] ;
68 -> 124 ;
125 [label="X[48] <= 0.5\ngini = 0.036\nsamples = 55\nvalue = [54, 1]"] ;
124 -> 125 ;
126 [label="gini = 0.0\nsamples = 30\nvalue = [30, 0]"] ;
125 -> 126 ;
127 [label="X[22] <= 0.5\ngini = 0.077\nsamples = 25\nvalue = [24, 1]"] ;
125 -> 127 ;
128 [label="gini = 0.0\nsamples = 9\nvalue = [9, 0]"] ;
127 -> 128 ;
129 [label="X[2] <= 0.5\ngini = 0.117\nsamples = 16\nvalue = [15, 1]"] ;
127 -> 129 ;
130 [label="gini = 0.0\nsamples = 4\nvalue = [4, 0]"] ;
129 -> 130 ;
131 [label="gini = 0.153\nsamples = 12\nvalue = [11, 1]"] ;
129 -> 131 ;
132 [label="X[1] <= 0.5\ngini = 0.082\nsamples = 70\nvalue = [67, 3]"] ;
124 -> 132 ;
133 [label="X[45] <= 0.5\ngini = 0.061\nsamples = 64\nvalue = [62, 2]"] ;
132 -> 133 ;
134 [label="gini = 0.0\nsamples = 25\nvalue = [25, 0]"] ;
133 -> 134 ;
135 [label="X[2] <= 0.5\ngini = 0.097\nsamples = 39\nvalue = [37, 2]"] ;
133 -> 135 ;
136 [label="gini = 0.0\nsamples = 5\nvalue = [5, 0]"] ;
135 -> 136 ;
137 [label="X[65] <= 0.5\ngini = 0.111\nsamples = 34\nvalue = [32, 2]"] ;
135 -> 137 ;
138 [label="gini = 0.114\nsamples = 33\nvalue = [31, 2]"] ;
137 -> 138 ;
139 [label="gini = 0.0\nsamples = 1\nvalue = [1, 0]"] ;
137 -> 139 ;
140 [label="X[48] <= 0.5\ngini = 0.278\nsamples = 6\nvalue = [5, 1]"] ;
132 -> 140 ;
141 [label="gini = 0.0\nsamples = 3\nvalue = [3, 0]"] ;
140 -> 141 ;
142 [label="gini = 0.444\nsamples = 3\nvalue = [2, 1]"] ;
140 -> 142 ;
143 [label="X[0] <= 0.5\ngini = 0.075\nsamples = 51\nvalue = [49, 2]"] ;
53 -> 143 ;
144 [label="X[48] <= 0.5\ngini = 0.04\nsamples = 49\nvalue = [48, 1]"] ;
143 -> 144 ;
145 [label="gini = 0.0\nsamples = 23\nvalue = [23, 0]"] ;
144 -> 145 ;
146 [label="X[52] <= 0.5\ngini = 0.074\nsamples = 26\nvalue = [25, 1]"] ;
144 -> 146 ;
147 [label="X[23] <= 0.5\ngini = 0.091\nsamples = 21\nvalue = [20, 1]"] ;
146 -> 147 ;
148 [label="gini = 0.0\nsamples = 4\nvalue = [4, 0]"] ;
147 -> 148 ;
149 [label="X[2] <= 0.5\ngini = 0.111\nsamples = 17\nvalue = [16, 1]"] ;
147 -> 149 ;
150 [label="gini = 0.0\nsamples = 3\nvalue = [3, 0]"] ;
149 -> 150 ;
151 [label="gini = 0.133\nsamples = 14\nvalue = [13, 1]"] ;
149 -> 151 ;
152 [label="gini = 0.0\nsamples = 5\nvalue = [5, 0]"] ;
146 -> 152 ;
153 [label="X[47] <= 0.5\ngini = 0.5\nsamples = 2\nvalue = [1, 1]"] ;
143 -> 153 ;
154 [label="gini = 0.0\nsamples = 1\nvalue = [0, 1]"] ;
153 -> 154 ;
155 [label="gini = 0.0\nsamples = 1\nvalue = [1, 0]"] ;
153 -> 155 ;
156 [label="X[29] <= 0.5\ngini = 0.18\nsamples = 10\nvalue = [9, 1]"] ;
20 -> 156 ;
157 [label="gini = 0.0\nsamples = 8\nvalue = [8, 0]"] ;
156 -> 157 ;
158 [label="gini = 0.5\nsamples = 2\nvalue = [1, 1]"] ;
156 -> 158 ;
159 [label="X[14] <= 0.5\ngini = 0.124\nsamples = 30\nvalue = [28, 2]"] ;
19 -> 159 ;
160 [label="X[50] <= 0.5\ngini = 0.067\nsamples = 29\nvalue = [28, 1]"] ;
159 -> 160 ;
161 [label="gini = 0.0\nsamples = 26\nvalue = [26, 0]"] ;
160 -> 161 ;
162 [label="X[22] <= 0.5\ngini = 0.444\nsamples = 3\nvalue = [2, 1]"] ;
160 -> 162 ;
163 [label="gini = 0.0\nsamples = 1\nvalue = [1, 0]"] ;
162 -> 163 ;
164 [label="gini = 0.5\nsamples = 2\nvalue = [1, 1]"] ;
162 -> 164 ;
165 [label="gini = 0.0\nsamples = 1\nvalue = [0, 1]"] ;
159 -> 165 ;
166 [label="X[29] <= 0.5\ngini = 0.068\nsamples = 341\nvalue = [329, 12]"] ;
18 -> 166 ;
167 [label="X[23] <= 0.5\ngini = 0.05\nsamples = 275\nvalue = [268, 7]"] ;
166 -> 167 ;
168 [label="gini = 0.0\nsamples = 74\nvalue = [74, 0]"] ;
167 -> 168 ;
169 [label="X[22] <= 0.5\ngini = 0.067\nsamples = 201\nvalue = [194, 7]"] ;
167 -> 169 ;
170 [label="X[15] <= 0.5\ngini = 0.043\nsamples = 137\nvalue = [134, 3]"] ;
169 -> 170 ;
171 [label="X[18] <= 0.5\ngini = 0.031\nsamples = 125\nvalue = [123, 2]"] ;
170 -> 171 ;
172 [label="gini = 0.0\nsamples = 32\nvalue = [32, 0]"] ;
171 -> 172 ;
173 [label="X[54] <= 0.5\ngini = 0.042\nsamples = 93\nvalue = [91, 2]"] ;
171 -> 173 ;
174 [label="gini = 0.0\nsamples = 9\nvalue = [9, 0]"] ;
173 -> 174 ;
175 [label="X[47] <= 0.5\ngini = 0.046\nsamples = 84\nvalue = [82, 2]"] ;
173 -> 175 ;
176 [label="X[95] <= 0.5\ngini = 0.052\nsamples = 75\nvalue = [73, 2]"] ;
175 -> 176 ;
177 [label="gini = 0.0\nsamples = 4\nvalue = [4, 0]"] ;
176 -> 177 ;
178 [label="X[46] <= 0.5\ngini = 0.055\nsamples = 71\nvalue = [69, 2]"] ;
176 -> 178 ;
179 [label="X[45] <= 0.5\ngini = 0.058\nsamples = 67\nvalue = [65, 2]"] ;
178 -> 179 ;
180 [label="gini = 0.064\nsamples = 30\nvalue = [29, 1]"] ;
179 -> 180 ;
181 [label="gini = 0.053\nsamples = 37\nvalue = [36, 1]"] ;
179 -> 181 ;
182 [label="gini = 0.0\nsamples = 4\nvalue = [4, 0]"] ;
178 -> 182 ;
183 [label="gini = 0.0\nsamples = 9\nvalue = [9, 0]"] ;
175 -> 183 ;
184 [label="X[45] <= 0.5\ngini = 0.153\nsamples = 12\nvalue = [11, 1]"] ;
170 -> 184 ;
185 [label="gini = 0.0\nsamples = 8\nvalue = [8, 0]"] ;
184 -> 185 ;
186 [label="X[50] <= 0.5\ngini = 0.375\nsamples = 4\nvalue = [3, 1]"] ;
184 -> 186 ;
187 [label="gini = 0.444\nsamples = 3\nvalue = [2, 1]"] ;
186 -> 187 ;
188 [label="gini = 0.0\nsamples = 1\nvalue = [1, 0]"] ;
186 -> 188 ;
189 [label="X[46] <= 0.5\ngini = 0.117\nsamples = 64\nvalue = [60, 4]"] ;
169 -> 189 ;
190 [label="X[54] <= 0.5\ngini = 0.092\nsamples = 62\nvalue = [59, 3]"] ;
189 -> 190 ;
191 [label="gini = 0.0\nsamples = 7\nvalue = [7, 0]"] ;
190 -> 191 ;
192 [label="X[95] <= 0.5\ngini = 0.103\nsamples = 55\nvalue = [52, 3]"] ;
190 -> 192 ;
193 [label="gini = 0.0\nsamples = 5\nvalue = [5, 0]"] ;
192 -> 193 ;
194 [label="X[48] <= 0.5\ngini = 0.113\nsamples = 50\nvalue = [47, 3]"] ;
192 -> 194 ;
195 [label="X[45] <= 0.5\ngini = 0.074\nsamples = 26\nvalue = [25, 1]"] ;
194 -> 195 ;
196 [label="gini = 0.0\nsamples = 3\nvalue = [3, 0]"] ;
195 -> 196 ;
197 [label="X[2] <= 0.5\ngini = 0.083\nsamples = 23\nvalue = [22, 1]"] ;
195 -> 197 ;
198 [label="gini = 0.0\nsamples = 1\nvalue = [1, 0]"] ;
197 -> 198 ;
199 [label="gini = 0.087\nsamples = 22\nvalue = [21, 1]"] ;
197 -> 199 ;
200 [label="gini = 0.153\nsamples = 24\nvalue = [22, 2]"] ;
194 -> 200 ;
201 [label="gini = 0.5\nsamples = 2\nvalue = [1, 1]"] ;
189 -> 201 ;
202 [label="X[45] <= 0.5\ngini = 0.14\nsamples = 66\nvalue = [61, 5]"] ;
166 -> 202 ;
203 [label="X[22] <= 0.5\ngini = 0.064\nsamples = 30\nvalue = [29, 1]"] ;
202 -> 203 ;
204 [label="gini = 0.0\nsamples = 24\nvalue = [24, 0]"] ;
203 -> 204 ;
205 [label="X[54] <= 0.5\ngini = 0.278\nsamples = 6\nvalue = [5, 1]"] ;
203 -> 205 ;
206 [label="gini = 0.0\nsamples = 1\nvalue = [1, 0]"] ;
205 -> 206 ;
207 [label="X[48] <= 0.5\ngini = 0.32\nsamples = 5\nvalue = [4, 1]"] ;
205 -> 207 ;
208 [label="gini = 0.0\nsamples = 1\nvalue = [1, 0]"] ;
207 -> 208 ;
209 [label="gini = 0.375\nsamples = 4\nvalue = [3, 1]"] ;
207 -> 209 ;
210 [label="X[18] <= 0.5\ngini = 0.198\nsamples = 36\nvalue = [32, 4]"] ;
202 -> 210 ;
211 [label="gini = 0.0\nsamples = 15\nvalue = [15, 0]"] ;
210 -> 211 ;
212 [label="gini = 0.308\nsamples = 21\nvalue = [17, 4]"] ;
210 -> 212 ;
213 [label="X[0] <= 0.5\ngini = 0.107\nsamples = 106\nvalue = [100, 6]"] ;
17 -> 213 ;
214 [label="X[13] <= 0.5\ngini = 0.075\nsamples = 103\nvalue = [99, 4]"] ;
213 -> 214 ;
215 [label="X[47] <= 0.5\ngini = 0.04\nsamples = 99\nvalue = [97, 2]"] ;
214 -> 215 ;
216 [label="X[45] <= 0.5\ngini = 0.021\nsamples = 94\nvalue = [93, 1]"] ;
215 -> 216 ;
217 [label="gini = 0.0\nsamples = 60\nvalue = [60, 0]"] ;
216 -> 217 ;
218 [label="X[18] <= 0.5\ngini = 0.057\nsamples = 34\nvalue = [33, 1]"] ;
216 -> 218 ;
219 [label="gini = 0.0\nsamples = 17\nvalue = [17, 0]"] ;
218 -> 219 ;
220 [label="X[23] <= 0.5\ngini = 0.111\nsamples = 17\nvalue = [16, 1]"] ;
218 -> 220 ;
221 [label="gini = 0.0\nsamples = 6\nvalue = [6, 0]"] ;
220 -> 221 ;
222 [label="X[95] <= 0.5\ngini = 0.165\nsamples = 11\nvalue = [10, 1]"] ;
220 -> 222 ;
223 [label="gini = 0.0\nsamples = 2\nvalue = [2, 0]"] ;
222 -> 223 ;
224 [label="gini = 0.198\nsamples = 9\nvalue = [8, 1]"] ;
222 -> 224 ;
225 [label="X[8] <= 0.5\ngini = 0.32\nsamples = 5\nvalue = [4, 1]"] ;
215 -> 225 ;
226 [label="gini = 0.0\nsamples = 4\nvalue = [4, 0]"] ;
225 -> 226 ;
227 [label="gini = 0.0\nsamples = 1\nvalue = [0, 1]"] ;
225 -> 227 ;
228 [label="X[28] <= 0.5\ngini = 0.5\nsamples = 4\nvalue = [2, 2]"] ;
214 -> 228 ;
229 [label="X[95] <= 0.5\ngini = 0.444\nsamples = 3\nvalue = [1, 2]"] ;
228 -> 229 ;
230 [label="gini = 0.0\nsamples = 1\nvalue = [1, 0]"] ;
229 -> 230 ;
231 [label="gini = 0.0\nsamples = 2\nvalue = [0, 2]"] ;
229 -> 231 ;
232 [label="gini = 0.0\nsamples = 1\nvalue = [1, 0]"] ;
228 -> 232 ;
233 [label="X[50] <= 0.5\ngini = 0.444\nsamples = 3\nvalue = [1, 2]"] ;
213 -> 233 ;
234 [label="gini = 0.0\nsamples = 2\nvalue = [0, 2]"] ;
233 -> 234 ;
235 [label="gini = 0.0\nsamples = 1\nvalue = [1, 0]"] ;
233 -> 235 ;
236 [label="X[42] <= 0.5\ngini = 0.174\nsamples = 52\nvalue = [47, 5]"] ;
16 -> 236 ;
237 [label="X[26] <= 0.5\ngini = 0.145\nsamples = 51\nvalue = [47, 4]"] ;
236 -> 237 ;
238 [label="X[48] <= 0.5\ngini = 0.115\nsamples = 49\nvalue = [46, 3]"] ;
237 -> 238 ;
239 [label="gini = 0.0\nsamples = 29\nvalue = [29, 0]"] ;
238 -> 239 ;
240 [label="X[29] <= 0.5\ngini = 0.255\nsamples = 20\nvalue = [17, 3]"] ;
238 -> 240 ;
241 [label="X[34] <= 0.5\ngini = 0.133\nsamples = 14\nvalue = [13, 1]"] ;
240 -> 241 ;
242 [label="gini = 0.0\nsamples = 11\nvalue = [11, 0]"] ;
241 -> 242 ;
243 [label="X[18] <= 0.5\ngini = 0.444\nsamples = 3\nvalue = [2, 1]"] ;
241 -> 243 ;
244 [label="gini = 0.0\nsamples = 1\nvalue = [0, 1]"] ;
243 -> 244 ;
245 [label="gini = 0.0\nsamples = 2\nvalue = [2, 0]"] ;
243 -> 245 ;
246 [label="X[41] <= 0.5\ngini = 0.444\nsamples = 6\nvalue = [4, 2]"] ;
240 -> 246 ;
247 [label="X[18] <= 0.5\ngini = 0.32\nsamples = 5\nvalue = [4, 1]"] ;
246 -> 247 ;
248 [label="gini = 0.0\nsamples = 3\nvalue = [3, 0]"] ;
247 -> 248 ;
249 [label="gini = 0.5\nsamples = 2\nvalue = [1, 1]"] ;
247 -> 249 ;
250 [label="gini = 0.0\nsamples = 1\nvalue = [0, 1]"] ;
246 -> 250 ;
251 [label="X[48] <= 0.5\ngini = 0.5\nsamples = 2\nvalue = [1, 1]"] ;
237 -> 251 ;
252 [label="gini = 0.0\nsamples = 1\nvalue = [0, 1]"] ;
251 -> 252 ;
253 [label="gini = 0.0\nsamples = 1\nvalue = [1, 0]"] ;
251 -> 253 ;
254 [label="gini = 0.0\nsamples = 1\nvalue = [0, 1]"] ;
236 -> 254 ;
255 [label="X[5] <= 0.5\ngini = 0.011\nsamples = 695\nvalue = [691, 4]"] ;
15 -> 255 ;
256 [label="X[26] <= 0.5\ngini = 0.009\nsamples = 670\nvalue = [667, 3]"] ;
255 -> 256 ;
257 [label="X[23] <= 0.5\ngini = 0.006\nsamples = 635\nvalue = [633, 2]"] ;
256 -> 257 ;
258 [label="gini = 0.0\nsamples = 289\nvalue = [289, 0]"] ;
257 -> 258 ;
259 [label="X[22] <= 0.5\ngini = 0.011\nsamples = 346\nvalue = [344, 2]"] ;
257 -> 259 ;
260 [label="X[48] <= 0.5\ngini = 0.007\nsamples = 280\nvalue = [279, 1]"] ;
259 -> 260 ;
261 [label="gini = 0.0\nsamples = 144\nvalue = [144, 0]"] ;
260 -> 261 ;
262 [label="X[18] <= 0.5\ngini = 0.015\nsamples = 136\nvalue = [135, 1]"] ;
260 -> 262 ;
263 [label="gini = 0.0\nsamples = 55\nvalue = [55, 0]"] ;
262 -> 263 ;
264 [label="X[54] <= 0.5\ngini = 0.024\nsamples = 81\nvalue = [80, 1]"] ;
262 -> 264 ;
265 [label="gini = 0.0\nsamples = 13\nvalue = [13, 0]"] ;
264 -> 265 ;
266 [label="X[2] <= 0.5\ngini = 0.029\nsamples = 68\nvalue = [67, 1]"] ;
264 -> 266 ;
267 [label="gini = 0.0\nsamples = 7\nvalue = [7, 0]"] ;
266 -> 267 ;
268 [label="X[95] <= 0.5\ngini = 0.032\nsamples = 61\nvalue = [60, 1]"] ;
266 -> 268 ;
269 [label="gini = 0.0\nsamples = 1\nvalue = [1, 0]"] ;
268 -> 269 ;
270 [label="gini = 0.033\nsamples = 60\nvalue = [59, 1]"] ;
268 -> 270 ;
271 [label="X[45] <= 0.5\ngini = 0.03\nsamples = 66\nvalue = [65, 1]"] ;
259 -> 271 ;
272 [label="gini = 0.0\nsamples = 38\nvalue = [38, 0]"] ;
271 -> 272 ;
273 [label="X[2] <= 0.5\ngini = 0.069\nsamples = 28\nvalue = [27, 1]"] ;
271 -> 273 ;
274 [label="gini = 0.0\nsamples = 5\nvalue = [5, 0]"] ;
273 -> 274 ;
275 [label="gini = 0.083\nsamples = 23\nvalue = [22, 1]"] ;
273 -> 275 ;
276 [label="X[52] <= 0.5\ngini = 0.056\nsamples = 35\nvalue = [34, 1]"] ;
256 -> 276 ;
277 [label="gini = 0.0\nsamples = 24\nvalue = [24, 0]"] ;
276 -> 277 ;
278 [label="X[18] <= 0.5\ngini = 0.165\nsamples = 11\nvalue = [10, 1]"] ;
276 -> 278 ;
279 [label="gini = 0.0\nsamples = 6\nvalue = [6, 0]"] ;
278 -> 279 ;
280 [label="X[2] <= 0.5\ngini = 0.32\nsamples = 5\nvalue = [4, 1]"] ;
278 -> 280 ;
281 [label="gini = 0.0\nsamples = 1\nvalue = [1, 0]"] ;
280 -> 281 ;
282 [label="X[79] <= 0.5\ngini = 0.375\nsamples = 4\nvalue = [3, 1]"] ;
280 -> 282 ;
283 [label="gini = 0.444\nsamples = 3\nvalue = [2, 1]"] ;
282 -> 283 ;
284 [label="gini = 0.0\nsamples = 1\nvalue = [1, 0]"] ;
282 -> 284 ;
285 [label="X[8] <= 0.5\ngini = 0.077\nsamples = 25\nvalue = [24, 1]"] ;
255 -> 285 ;
286 [label="gini = 0.0\nsamples = 23\nvalue = [23, 0]"] ;
285 -> 286 ;
287 [label="X[23] <= 0.5\ngini = 0.5\nsamples = 2\nvalue = [1, 1]"] ;
285 -> 287 ;
288 [label="gini = 0.0\nsamples = 1\nvalue = [0, 1]"] ;
287 -> 288 ;
289 [label="gini = 0.0\nsamples = 1\nvalue = [1, 0]"] ;
287 -> 289 ;
290 [label="X[18] <= 0.5\ngini = 0.375\nsamples = 4\nvalue = [3, 1]"] ;
14 -> 290 ;
291 [label="gini = 0.0\nsamples = 3\nvalue = [3, 0]"] ;
290 -> 291 ;
292 [label="gini = 0.0\nsamples = 1\nvalue = [0, 1]"] ;
290 -> 292 ;
293 [label="X[18] <= 0.5\ngini = 0.375\nsamples = 4\nvalue = [3, 1]"] ;
13 -> 293 ;
294 [label="gini = 0.0\nsamples = 3\nvalue = [3, 0]"] ;
293 -> 294 ;
295 [label="gini = 0.0\nsamples = 1\nvalue = [0, 1]"] ;
293 -> 295 ;
296 [label="X[41] <= 0.5\ngini = 0.375\nsamples = 4\nvalue = [3, 1]"] ;
12 -> 296 ;
297 [label="gini = 0.0\nsamples = 3\nvalue = [3, 0]"] ;
296 -> 297 ;
298 [label="gini = 0.0\nsamples = 1\nvalue = [0, 1]"] ;
296 -> 298 ;
299 [label="X[86] <= 0.5\ngini = 0.134\nsamples = 207\nvalue = [192, 15]"] ;
11 -> 299 ;
300 [label="X[0] <= 0.5\ngini = 0.127\nsamples = 206\nvalue = [192, 14]"] ;
299 -> 300 ;
301 [label="X[15] <= 0.5\ngini = 0.114\nsamples = 197\nvalue = [185, 12]"] ;
300 -> 301 ;
302 [label="X[46] <= 0.5\ngini = 0.078\nsamples = 148\nvalue = [142, 6]"] ;
301 -> 302 ;
303 [label="X[23] <= 0.5\ngini = 0.067\nsamples = 145\nvalue = [140, 5]"] ;
302 -> 303 ;
304 [label="gini = 0.0\nsamples = 41\nvalue = [41, 0]"] ;
303 -> 304 ;
305 [label="X[2] <= 0.5\ngini = 0.092\nsamples = 104\nvalue = [99, 5]"] ;
303 -> 305 ;
306 [label="gini = 0.0\nsamples = 29\nvalue = [29, 0]"] ;
305 -> 306 ;
307 [label="X[47] <= 0.5\ngini = 0.124\nsamples = 75\nvalue = [70, 5]"] ;
305 -> 307 ;
308 [label="X[14] <= 0.5\ngini = 0.108\nsamples = 70\nvalue = [66, 4]"] ;
307 -> 308 ;
309 [label="X[54] <= 0.5\ngini = 0.08\nsamples = 48\nvalue = [46, 2]"] ;
308 -> 309 ;
310 [label="gini = 0.0\nsamples = 7\nvalue = [7, 0]"] ;
309 -> 310 ;
311 [label="X[18] <= 0.5\ngini = 0.093\nsamples = 41\nvalue = [39, 2]"] ;
309 -> 311 ;
312 [label="X[48] <= 0.5\ngini = 0.074\nsamples = 26\nvalue = [25, 1]"] ;
311 -> 312 ;
313 [label="X[65] <= 0.5\ngini = 0.165\nsamples = 11\nvalue = [10, 1]"] ;
312 -> 313 ;
314 [label="gini = 0.18\nsamples = 10\nvalue = [9, 1]"] ;
313 -> 314 ;
315 [label="gini = 0.0\nsamples = 1\nvalue = [1, 0]"] ;
313 -> 315 ;
316 [label="gini = 0.0\nsamples = 15\nvalue = [15, 0]"] ;
312 -> 316 ;
317 [label="X[48] <= 0.5\ngini = 0.124\nsamples = 15\nvalue = [14, 1]"] ;
311 -> 317 ;
318 [label="gini = 0.0\nsamples = 9\nvalue = [9, 0]"] ;
317 -> 318 ;
319 [label="gini = 0.278\nsamples = 6\nvalue = [5, 1]"] ;
317 -> 319 ;
320 [label="X[52] <= 0.5\ngini = 0.165\nsamples = 22\nvalue = [20, 2]"] ;
308 -> 320 ;
321 [label="X[45] <= 0.5\ngini = 0.18\nsamples = 20\nvalue = [18, 2]"] ;
320 -> 321 ;
322 [label="gini = 0.165\nsamples = 11\nvalue = [10, 1]"] ;
321 -> 322 ;
323 [label="gini = 0.198\nsamples = 9\nvalue = [8, 1]"] ;
321 -> 323 ;
324 [label="gini = 0.0\nsamples = 2\nvalue = [2, 0]"] ;
320 -> 324 ;
325 [label="X[22] <= 0.5\ngini = 0.32\nsamples = 5\nvalue = [4, 1]"] ;
307 -> 325 ;
326 [label="gini = 0.444\nsamples = 3\nvalue = [2, 1]"] ;
325 -> 326 ;
327 [label="gini = 0.0\nsamples = 2\nvalue = [2, 0]"] ;
325 -> 327 ;
328 [label="X[89] <= 0.5\ngini = 0.444\nsamples = 3\nvalue = [2, 1]"] ;
302 -> 328 ;
329 [label="gini = 0.5\nsamples = 2\nvalue = [1, 1]"] ;
328 -> 329 ;
330 [label="gini = 0.0\nsamples = 1\nvalue = [1, 0]"] ;
328 -> 330 ;
331 [label="X[23] <= 0.5\ngini = 0.215\nsamples = 49\nvalue = [43, 6]"] ;
301 -> 331 ;
332 [label="gini = 0.0\nsamples = 19\nvalue = [19, 0]"] ;
331 -> 332 ;
333 [label="X[5] <= 0.5\ngini = 0.32\nsamples = 30\nvalue = [24, 6]"] ;
331 -> 333 ;
334 [label="X[2] <= 0.5\ngini = 0.293\nsamples = 28\nvalue = [23, 5]"] ;
333 -> 334 ;
335 [label="gini = 0.0\nsamples = 2\nvalue = [2, 0]"] ;
334 -> 335 ;
336 [label="X[48] <= 0.5\ngini = 0.311\nsamples = 26\nvalue = [21, 5]"] ;
334 -> 336 ;
337 [label="gini = 0.346\nsamples = 9\nvalue = [7, 2]"] ;
336 -> 337 ;
338 [label="gini = 0.291\nsamples = 17\nvalue = [14, 3]"] ;
336 -> 338 ;
339 [label="gini = 0.5\nsamples = 2\nvalue = [1, 1]"] ;
333 -> 339 ;
340 [label="X[28] <= 0.5\ngini = 0.346\nsamples = 9\nvalue = [7, 2]"] ;
300 -> 340 ;
341 [label="X[54] <= 0.5\ngini = 0.219\nsamples = 8\nvalue = [7, 1]"] ;
340 -> 341 ;
342 [label="gini = 0.0\nsamples = 4\nvalue = [4, 0]"] ;
341 -> 342 ;
343 [label="X[18] <= 0.5\ngini = 0.375\nsamples = 4\nvalue = [3, 1]"] ;
341 -> 343 ;
344 [label="gini = 0.0\nsamples = 1\nvalue = [0, 1]"] ;
343 -> 344 ;
345 [label="gini = 0.0\nsamples = 3\nvalue = [3, 0]"] ;
343 -> 345 ;
346 [label="gini = 0.0\nsamples = 1\nvalue = [0, 1]"] ;
340 -> 346 ;
347 [label="gini = 0.0\nsamples = 1\nvalue = [0, 1]"] ;
299 -> 347 ;
348 [label="X[45] <= 0.5\ngini = 0.298\nsamples = 22\nvalue = [18, 4]"] ;
10 -> 348 ;
349 [label="X[18] <= 0.5\ngini = 0.153\nsamples = 12\nvalue = [11, 1]"] ;
348 -> 349 ;
350 [label="gini = 0.0\nsamples = 7\nvalue = [7, 0]"] ;
349 -> 350 ;
351 [label="X[23] <= 0.5\ngini = 0.32\nsamples = 5\nvalue = [4, 1]"] ;
349 -> 351 ;
352 [label="gini = 0.0\nsamples = 3\nvalue = [3, 0]"] ;
351 -> 352 ;
353 [label="X[41] <= 0.5\ngini = 0.5\nsamples = 2\nvalue = [1, 1]"] ;
351 -> 353 ;
354 [label="gini = 0.0\nsamples = 1\nvalue = [1, 0]"] ;
353 -> 354 ;
355 [label="gini = 0.0\nsamples = 1\nvalue = [0, 1]"] ;
353 -> 355 ;
356 [label="X[29] <= 0.5\ngini = 0.42\nsamples = 10\nvalue = [7, 3]"] ;
348 -> 356 ;
357 [label="gini = 0.0\nsamples = 4\nvalue = [4, 0]"] ;
356 -> 357 ;
358 [label="X[18] <= 0.5\ngini = 0.5\nsamples = 6\nvalue = [3, 3]"] ;
356 -> 358 ;
359 [label="X[15] <= 0.5\ngini = 0.48\nsamples = 5\nvalue = [2, 3]"] ;
358 -> 359 ;
360 [label="gini = 0.5\nsamples = 4\nvalue = [2, 2]"] ;
359 -> 360 ;
361 [label="gini = 0.0\nsamples = 1\nvalue = [0, 1]"] ;
359 -> 361 ;
362 [label="gini = 0.0\nsamples = 1\nvalue = [1, 0]"] ;
358 -> 362 ;
363 [label="gini = 0.0\nsamples = 1\nvalue = [0, 1]"] ;
9 -> 363 ;
364 [label="X[80] <= 0.5\ngini = 0.156\nsamples = 374\nvalue = [342, 32]"] ;
8 -> 364 ;
365 [label="X[91] <= 0.5\ngini = 0.152\nsamples = 373\nvalue = [342, 31]"] ;
364 -> 365 ;
366 [label="X[45] <= 0.5\ngini = 0.149\nsamples = 371\nvalue = [341, 30]"] ;
365 -> 366 ;
367 [label="X[22] <= 0.5\ngini = 0.109\nsamples = 191\nvalue = [180, 11]"] ;
366 -> 367 ;
368 [label="X[7] <= 0.5\ngini = 0.165\nsamples = 110\nvalue = [100, 10]"] ;
367 -> 368 ;
369 [label="X[18] <= 0.5\ngini = 0.154\nsamples = 107\nvalue = [98, 9]"] ;
368 -> 369 ;
370 [label="X[23] <= 0.5\ngini = 0.219\nsamples = 32\nvalue = [28, 4]"] ;
369 -> 370 ;
371 [label="X[52] <= 0.5\ngini = 0.375\nsamples = 8\nvalue = [6, 2]"] ;
370 -> 371 ;
372 [label="X[95] <= 0.5\ngini = 0.444\nsamples = 6\nvalue = [4, 2]"] ;
371 -> 372 ;
373 [label="gini = 0.0\nsamples = 1\nvalue = [1, 0]"] ;
372 -> 373 ;
374 [label="X[51] <= 0.5\ngini = 0.48\nsamples = 5\nvalue = [3, 2]"] ;
372 -> 374 ;
375 [label="X[28] <= 0.5\ngini = 0.375\nsamples = 4\nvalue = [3, 1]"] ;
374 -> 375 ;
376 [label="gini = 0.0\nsamples = 2\nvalue = [2, 0]"] ;
375 -> 376 ;
377 [label="X[47] <= 0.5\ngini = 0.5\nsamples = 2\nvalue = [1, 1]"] ;
375 -> 377 ;
378 [label="gini = 0.0\nsamples = 1\nvalue = [0, 1]"] ;
377 -> 378 ;
379 [label="gini = 0.0\nsamples = 1\nvalue = [1, 0]"] ;
377 -> 379 ;
380 [label="gini = 0.0\nsamples = 1\nvalue = [0, 1]"] ;
374 -> 380 ;
381 [label="gini = 0.0\nsamples = 2\nvalue = [2, 0]"] ;
371 -> 381 ;
382 [label="X[8] <= 0.5\ngini = 0.153\nsamples = 24\nvalue = [22, 2]"] ;
370 -> 382 ;
383 [label="X[14] <= 0.5\ngini = 0.1\nsamples = 19\nvalue = [18, 1]"] ;
382 -> 383 ;
384 [label="gini = 0.0\nsamples = 9\nvalue = [9, 0]"] ;
383 -> 384 ;
385 [label="X[54] <= 0.5\ngini = 0.18\nsamples = 10\nvalue = [9, 1]"] ;
383 -> 385 ;
386 [label="gini = 0.0\nsamples = 4\nvalue = [4, 0]"] ;
385 -> 386 ;
387 [label="X[4] <= 0.5\ngini = 0.278\nsamples = 6\nvalue = [5, 1]"] ;
385 -> 387 ;
388 [label="X[95] <= 0.5\ngini = 0.32\nsamples = 5\nvalue = [4, 1]"] ;
387 -> 388 ;
389 [label="gini = 0.0\nsamples = 1\nvalue = [1, 0]"] ;
388 -> 389 ;
390 [label="X[48] <= 0.5\ngini = 0.375\nsamples = 4\nvalue = [3, 1]"] ;
388 -> 390 ;
391 [label="gini = 0.0\nsamples = 1\nvalue = [1, 0]"] ;
390 -> 391 ;
392 [label="gini = 0.444\nsamples = 3\nvalue = [2, 1]"] ;
390 -> 392 ;
393 [label="gini = 0.0\nsamples = 1\nvalue = [1, 0]"] ;
387 -> 393 ;
394 [label="X[2] <= 0.5\ngini = 0.32\nsamples = 5\nvalue = [4, 1]"] ;
382 -> 394 ;
395 [label="gini = 0.0\nsamples = 2\nvalue = [2, 0]"] ;
394 -> 395 ;
396 [label="gini = 0.444\nsamples = 3\nvalue = [2, 1]"] ;
394 -> 396 ;
397 [label="X[4] <= 0.5\ngini = 0.124\nsamples = 75\nvalue = [70, 5]"] ;
369 -> 397 ;
398 [label="X[52] <= 0.5\ngini = 0.105\nsamples = 72\nvalue = [68, 4]"] ;
397 -> 398 ;
399 [label="X[5] <= 0.5\ngini = 0.086\nsamples = 67\nvalue = [64, 3]"] ;
398 -> 399 ;
400 [label="X[23] <= 0.5\ngini = 0.064\nsamples = 60\nvalue = [58, 2]"] ;
399 -> 400 ;
401 [label="gini = 0.0\nsamples = 17\nvalue = [17, 0]"] ;
400 -> 401 ;
402 [label="X[2] <= 0.5\ngini = 0.089\nsamples = 43\nvalue = [41, 2]"] ;
400 -> 402 ;
403 [label="gini = 0.0\nsamples = 4\nvalue = [4, 0]"] ;
402 -> 403 ;
404 [label="X[48] <= 0.5\ngini = 0.097\nsamples = 39\nvalue = [37, 2]"] ;
402 -> 404 ;
405 [label="gini = 0.0\nsamples = 3\nvalue = [3, 0]"] ;
404 -> 405 ;
406 [label="X[51] <= 0.5\ngini = 0.105\nsamples = 36\nvalue = [34, 2]"] ;
404 -> 406 ;
407 [label="gini = 0.108\nsamples = 35\nvalue = [33, 2]"] ;
406 -> 407 ;
408 [label="gini = 0.0\nsamples = 1\nvalue = [1, 0]"] ;
406 -> 408 ;
409 [label="X[23] <= 0.5\ngini = 0.245\nsamples = 7\nvalue = [6, 1]"] ;
399 -> 409 ;
410 [label="gini = 0.0\nsamples = 2\nvalue = [2, 0]"] ;
409 -> 410 ;
411 [label="gini = 0.32\nsamples = 5\nvalue = [4, 1]"] ;
409 -> 411 ;
412 [label="X[23] <= 0.5\ngini = 0.32\nsamples = 5\nvalue = [4, 1]"] ;
398 -> 412 ;
413 [label="gini = 0.0\nsamples = 3\nvalue = [3, 0]"] ;
412 -> 413 ;
414 [label="gini = 0.5\nsamples = 2\nvalue = [1, 1]"] ;
412 -> 414 ;
415 [label="gini = 0.444\nsamples = 3\nvalue = [2, 1]"] ;
397 -> 415 ;
416 [label="X[29] <= 0.5\ngini = 0.444\nsamples = 3\nvalue = [2, 1]"] ;
368 -> 416 ;
417 [label="gini = 0.0\nsamples = 2\nvalue = [2, 0]"] ;
416 -> 417 ;
418 [label="gini = 0.0\nsamples = 1\nvalue = [0, 1]"] ;
416 -> 418 ;
419 [label="X[0] <= 0.5\ngini = 0.024\nsamples = 81\nvalue = [80, 1]"] ;
367 -> 419 ;
420 [label="gini = 0.0\nsamples = 74\nvalue = [74, 0]"] ;
419 -> 420 ;
421 [label="X[52] <= 0.5\ngini = 0.245\nsamples = 7\nvalue = [6, 1]"] ;
419 -> 421 ;
422 [label="gini = 0.0\nsamples = 5\nvalue = [5, 0]"] ;
421 -> 422 ;
423 [label="gini = 0.5\nsamples = 2\nvalue = [1, 1]"] ;
421 -> 423 ;
424 [label="X[54] <= 0.5\ngini = 0.189\nsamples = 180\nvalue = [161, 19]"] ;
366 -> 424 ;
425 [label="gini = 0.0\nsamples = 22\nvalue = [22, 0]"] ;
424 -> 425 ;
426 [label="X[2] <= 0.5\ngini = 0.212\nsamples = 158\nvalue = [139, 19]"] ;
424 -> 426 ;
427 [label="X[18] <= 0.5\ngini = 0.122\nsamples = 46\nvalue = [43, 3]"] ;
426 -> 427 ;
428 [label="gini = 0.0\nsamples = 27\nvalue = [27, 0]"] ;
427 -> 428 ;
429 [label="X[4] <= 0.5\ngini = 0.266\nsamples = 19\nvalue = [16, 3]"] ;
427 -> 429 ;
430 [label="X[3] <= 0.5\ngini = 0.124\nsamples = 15\nvalue = [14, 1]"] ;
429 -> 430 ;
431 [label="gini = 0.0\nsamples = 13\nvalue = [13, 0]"] ;
430 -> 431 ;
432 [label="X[29] <= 0.5\ngini = 0.5\nsamples = 2\nvalue = [1, 1]"] ;
430 -> 432 ;
433 [label="gini = 0.0\nsamples = 1\nvalue = [1, 0]"] ;
432 -> 433 ;
434 [label="gini = 0.0\nsamples = 1\nvalue = [0, 1]"] ;
432 -> 434 ;
435 [label="gini = 0.5\nsamples = 4\nvalue = [2, 2]"] ;
429 -> 435 ;
436 [label="X[15] <= 0.5\ngini = 0.245\nsamples = 112\nvalue = [96, 16]"] ;
426 -> 436 ;
437 [label="X[29] <= 0.5\ngini = 0.258\nsamples = 105\nvalue = [89, 16]"] ;
436 -> 437 ;
438 [label="X[22] <= 0.5\ngini = 0.233\nsamples = 89\nvalue = [77, 12]"] ;
437 -> 438 ;
439 [label="X[23] <= 0.5\ngini = 0.183\nsamples = 49\nvalue = [44, 5]"] ;
438 -> 439 ;
440 [label="gini = 0.0\nsamples = 7\nvalue = [7, 0]"] ;
439 -> 440 ;
441 [label="X[8] <= 0.5\ngini = 0.21\nsamples = 42\nvalue = [37, 5]"] ;
439 -> 441 ;
442 [label="X[65] <= 0.5\ngini = 0.214\nsamples = 41\nvalue = [36, 5]"] ;
441 -> 442 ;
443 [label="X[18] <= 0.5\ngini = 0.219\nsamples = 40\nvalue = [35, 5]"] ;
442 -> 443 ;
444 [label="gini = 0.198\nsamples = 9\nvalue = [8, 1]"] ;
443 -> 444 ;
445 [label="gini = 0.225\nsamples = 31\nvalue = [27, 4]"] ;
443 -> 445 ;
446 [label="gini = 0.0\nsamples = 1\nvalue = [1, 0]"] ;
442 -> 446 ;
447 [label="gini = 0.0\nsamples = 1\nvalue = [1, 0]"] ;
441 -> 447 ;
448 [label="X[23] <= 0.5\ngini = 0.289\nsamples = 40\nvalue = [33, 7]"] ;
438 -> 448 ;
449 [label="gini = 0.5\nsamples = 2\nvalue = [1, 1]"] ;
448 -> 449 ;
450 [label="X[95] <= 0.5\ngini = 0.266\nsamples = 38\nvalue = [32, 6]"] ;
448 -> 450 ;
451 [label="gini = 0.0\nsamples = 2\nvalue = [2, 0]"] ;
450 -> 451 ;
452 [label="gini = 0.278\nsamples = 36\nvalue = [30, 6]"] ;
450 -> 452 ;
453 [label="X[14] <= 0.5\ngini = 0.375\nsamples = 16\nvalue = [12, 4]"] ;
437 -> 453 ;
454 [label="X[18] <= 0.5\ngini = 0.32\nsamples = 15\nvalue = [12, 3]"] ;
453 -> 454 ;
455 [label="gini = 0.346\nsamples = 9\nvalue = [7, 2]"] ;
454 -> 455 ;
456 [label="gini = 0.278\nsamples = 6\nvalue = [5, 1]"] ;
454 -> 456 ;
457 [label="gini = 0.0\nsamples = 1\nvalue = [0, 1]"] ;
453 -> 457 ;
458 [label="gini = 0.0\nsamples = 7\nvalue = [7, 0]"] ;
436 -> 458 ;
459 [label="X[23] <= 0.5\ngini = 0.5\nsamples = 2\nvalue = [1, 1]"] ;
365 -> 459 ;
460 [label="gini = 0.0\nsamples = 1\nvalue = [1, 0]"] ;
459 -> 460 ;
461 [label="gini = 0.0\nsamples = 1\nvalue = [0, 1]"] ;
459 -> 461 ;
462 [label="gini = 0.0\nsamples = 1\nvalue = [0, 1]"] ;
364 -> 462 ;
463 [label="X[22] <= 0.5\ngini = 0.5\nsamples = 8\nvalue = [4, 4]"] ;
7 -> 463 ;
464 [label="X[32] <= 0.5\ngini = 0.444\nsamples = 6\nvalue = [4, 2]"] ;
463 -> 464 ;
465 [label="X[37] <= 0.5\ngini = 0.32\nsamples = 5\nvalue = [4, 1]"] ;
464 -> 465 ;
466 [label="gini = 0.0\nsamples = 3\nvalue = [3, 0]"] ;
465 -> 466 ;
467 [label="gini = 0.5\nsamples = 2\nvalue = [1, 1]"] ;
465 -> 467 ;
468 [label="gini = 0.0\nsamples = 1\nvalue = [0, 1]"] ;
464 -> 468 ;
469 [label="gini = 0.0\nsamples = 2\nvalue = [0, 2]"] ;
463 -> 469 ;
470 [label="X[33] <= 0.5\ngini = 0.177\nsamples = 1886\nvalue = [1701, 185]"] ;
6 -> 470 ;
471 [label="X[39] <= 0.5\ngini = 0.159\nsamples = 1723\nvalue = [1573, 150]"] ;
470 -> 471 ;
472 [label="X[42] <= 0.5\ngini = 0.147\nsamples = 1656\nvalue = [1524, 132]"] ;
471 -> 472 ;
473 [label="X[22] <= 0.5\ngini = 0.14\nsamples = 1615\nvalue = [1493, 122]"] ;
472 -> 473 ;
474 [label="X[51] <= 0.5\ngini = 0.116\nsamples = 1244\nvalue = [1167, 77]"] ;
473 -> 474 ;
475 [label="X[24] <= 0.5\ngini = 0.111\nsamples = 1222\nvalue = [1150, 72]"] ;
474 -> 475 ;
476 [label="X[78] <= 0.5\ngini = 0.109\nsamples = 1216\nvalue = [1146, 70]"] ;
475 -> 476 ;
477 [label="X[47] <= 0.5\ngini = 0.107\nsamples = 1214\nvalue = [1145, 69]"] ;
476 -> 477 ;
478 [label="X[89] <= 0.5\ngini = 0.117\nsamples = 1088\nvalue = [1020, 68]"] ;
477 -> 478 ;
479 [label="X[36] <= 0.5\ngini = 0.115\nsamples = 1081\nvalue = [1015, 66]"] ;
478 -> 479 ;
480 [label="X[37] <= 0.5\ngini = 0.125\nsamples = 954\nvalue = [890, 64]"] ;
479 -> 480 ;
481 [label="X[29] <= 0.5\ngini = 0.136\nsamples = 856\nvalue = [793, 63]"] ;
480 -> 481 ;
482 [label="X[95] <= 0.5\ngini = 0.127\nsamples = 794\nvalue = [740, 54]"] ;
481 -> 482 ;
483 [label="gini = 0.0\nsamples = 71\nvalue = [71, 0]"] ;
482 -> 483 ;
484 [label="X[35] <= 0.5\ngini = 0.138\nsamples = 723\nvalue = [669, 54]"] ;
482 -> 484 ;
485 [label="X[15] <= 0.5\ngini = 0.148\nsamples = 659\nvalue = [606, 53]"] ;
484 -> 485 ;
486 [label="X[50] <= 0.5\ngini = 0.14\nsamples = 620\nvalue = [573, 47]"] ;
485 -> 486 ;
487 [label="X[5] <= 0.5\ngini = 0.136\nsamples = 611\nvalue = [566, 45]"] ;
486 -> 487 ;
488 [label="X[45] <= 0.5\ngini = 0.133\nsamples = 601\nvalue = [558, 43]"] ;
487 -> 488 ;
489 [label="X[14] <= 0.5\ngini = 0.081\nsamples = 142\nvalue = [136, 6]"] ;
488 -> 489 ;
490 [label="X[43] <= 0.5\ngini = 0.071\nsamples = 136\nvalue = [131, 5]"] ;
489 -> 490 ;
491 [label="X[4] <= 0.5\ngini = 0.054\nsamples = 109\nvalue = [106, 3]"] ;
490 -> 491 ;
492 [label="X[48] <= 0.5\ngini = 0.041\nsamples = 96\nvalue = [94, 2]"] ;
491 -> 492 ;
493 [label="X[23] <= 0.5\ngini = 0.117\nsamples = 16\nvalue = [15, 1]"] ;
492 -> 493 ;
494 [label="gini = 0.0\nsamples = 7\nvalue = [7, 0]"] ;
493 -> 494 ;
495 [label="X[54] <= 0.5\ngini = 0.198\nsamples = 9\nvalue = [8, 1]"] ;
493 -> 495 ;
496 [label="gini = 0.0\nsamples = 3\nvalue = [3, 0]"] ;
495 -> 496 ;
497 [label="gini = 0.278\nsamples = 6\nvalue = [5, 1]"] ;
495 -> 497 ;
498 [label="X[52] <= 0.5\ngini = 0.025\nsamples = 80\nvalue = [79, 1]"] ;
492 -> 498 ;
499 [label="gini = 0.0\nsamples = 66\nvalue = [66, 0]"] ;
498 -> 499 ;
500 [label="X[23] <= 0.5\ngini = 0.133\nsamples = 14\nvalue = [13, 1]"] ;
498 -> 500 ;
501 [label="gini = 0.0\nsamples = 7\nvalue = [7, 0]"] ;
500 -> 501 ;
502 [label="X[32] <= 0.5\ngini = 0.245\nsamples = 7\nvalue = [6, 1]"] ;
500 -> 502 ;
503 [label="gini = 0.0\nsamples = 3\nvalue = [3, 0]"] ;
502 -> 503 ;
504 [label="X[2] <= 0.5\ngini = 0.375\nsamples = 4\nvalue = [3, 1]"] ;
502 -> 504 ;
505 [label="gini = 0.0\nsamples = 1\nvalue = [1, 0]"] ;
504 -> 505 ;
506 [label="gini = 0.444\nsamples = 3\nvalue = [2, 1]"] ;
504 -> 506 ;
507 [label="X[32] <= 0.5\ngini = 0.142\nsamples = 13\nvalue = [12, 1]"] ;
491 -> 507 ;
508 [label="gini = 0.0\nsamples = 6\nvalue = [6, 0]"] ;
507 -> 508 ;
509 [label="X[28] <= 0.5\ngini = 0.245\nsamples = 7\nvalue = [6, 1]"] ;
507 -> 509 ;
510 [label="X[48] <= 0.5\ngini = 0.375\nsamples = 4\nvalue = [3, 1]"] ;
509 -> 510 ;
511 [label="gini = 0.0\nsamples = 1\nvalue = [1, 0]"] ;
510 -> 511 ;
512 [label="gini = 0.444\nsamples = 3\nvalue = [2, 1]"] ;
510 -> 512 ;
513 [label="gini = 0.0\nsamples = 3\nvalue = [3, 0]"] ;
509 -> 513 ;
514 [label="X[7] <= 0.5\ngini = 0.137\nsamples = 27\nvalue = [25, 2]"] ;
490 -> 514 ;
515 [label="X[18] <= 0.5\ngini = 0.08\nsamples = 24\nvalue = [23, 1]"] ;
514 -> 515 ;
516 [label="gini = 0.0\nsamples = 10\nvalue = [10, 0]"] ;
515 -> 516 ;
517 [label="X[52] <= 0.5\ngini = 0.133\nsamples = 14\nvalue = [13, 1]"] ;
515 -> 517 ;
518 [label="X[2] <= 0.5\ngini = 0.18\nsamples = 10\nvalue = [9, 1]"] ;
517 -> 518 ;
519 [label="gini = 0.0\nsamples = 3\nvalue = [3, 0]"] ;
518 -> 519 ;
520 [label="X[28] <= 0.5\ngini = 0.245\nsamples = 7\nvalue = [6, 1]"] ;
518 -> 520 ;
521 [label="gini = 0.278\nsamples = 6\nvalue = [5, 1]"] ;
520 -> 521 ;
522 [label="gini = 0.0\nsamples = 1\nvalue = [1, 0]"] ;
520 -> 522 ;
523 [label="gini = 0.0\nsamples = 4\nvalue = [4, 0]"] ;
517 -> 523 ;
524 [label="X[52] <= 0.5\ngini = 0.444\nsamples = 3\nvalue = [2, 1]"] ;
514 -> 524 ;
525 [label="gini = 0.0\nsamples = 2\nvalue = [2, 0]"] ;
524 -> 525 ;
526 [label="gini = 0.0\nsamples = 1\nvalue = [0, 1]"] ;
524 -> 526 ;
527 [label="X[32] <= 0.5\ngini = 0.278\nsamples = 6\nvalue = [5, 1]"] ;
489 -> 527 ;
528 [label="gini = 0.0\nsamples = 5\nvalue = [5, 0]"] ;
527 -> 528 ;
529 [label="gini = 0.0\nsamples = 1\nvalue = [0, 1]"] ;
527 -> 529 ;
530 [label="X[9] <= 0.5\ngini = 0.148\nsamples = 459\nvalue = [422, 37]"] ;
488 -> 530 ;
531 [label="X[7] <= 0.5\ngini = 0.143\nsamples = 451\nvalue = [416, 35]"] ;
530 -> 531 ;
532 [label="X[13] <= 0.5\ngini = 0.15\nsamples = 428\nvalue = [393, 35]"] ;
531 -> 532 ;
533 [label="X[43] <= 0.5\ngini = 0.157\nsamples = 409\nvalue = [374, 35]"] ;
532 -> 533 ;
534 [label="X[4] <= 0.5\ngini = 0.173\nsamples = 313\nvalue = [283, 30]"] ;
533 -> 534 ;
535 [label="X[1] <= 0.5\ngini = 0.159\nsamples = 265\nvalue = [242, 23]"] ;
534 -> 535 ;
536 [label="X[40] <= 0.5\ngini = 0.152\nsamples = 254\nvalue = [233, 21]"] ;
535 -> 536 ;
537 [label="X[0] <= 0.5\ngini = 0.161\nsamples = 238\nvalue = [217, 21]"] ;
536 -> 537 ;
538 [label="X[30] <= 0.5\ngini = 0.167\nsamples = 228\nvalue = [207, 21]"] ;
537 -> 538 ;
539 [label="X[14] <= 0.5\ngini = 0.152\nsamples = 205\nvalue = [188, 17]"] ;
538 -> 539 ;
540 [label="X[12] <= 0.5\ngini = 0.139\nsamples = 187\nvalue = [173, 14]"] ;
539 -> 540 ;
541 [label="X[41] <= 0.5\ngini = 0.142\nsamples = 182\nvalue = [168, 14]"] ;
540 -> 541 ;
542 [label="X[3] <= 0.5\ngini = 0.151\nsamples = 146\nvalue = [134, 12]"] ;
541 -> 542 ;
543 [label="X[28] <= 0.5\ngini = 0.143\nsamples = 142\nvalue = [131, 11]"] ;
542 -> 543 ;
544 [label="X[18] <= 0.5\ngini = 0.162\nsamples = 124\nvalue = [113, 11]"] ;
543 -> 544 ;
545 [label="gini = 0.0\nsamples = 12\nvalue = [12, 0]"] ;
544 -> 545 ;
546 [label="X[52] <= 0.5\ngini = 0.177\nsamples = 112\nvalue = [101, 11]"] ;
544 -> 546 ;
547 [label="X[23] <= 0.5\ngini = 0.167\nsamples = 109\nvalue = [99, 10]"] ;
546 -> 547 ;
548 [label="X[34] <= 0.5\ngini = 0.32\nsamples = 5\nvalue = [4, 1]"] ;
547 -> 548 ;
549 [label="gini = 0.375\nsamples = 4\nvalue = [3, 1]"] ;
548 -> 549 ;
550 [label="gini = 0.0\nsamples = 1\nvalue = [1, 0]"] ;
548 -> 550 ;
551 [label="X[34] <= 0.5\ngini = 0.158\nsamples = 104\nvalue = [95, 9]"] ;
547 -> 551 ;
552 [label="gini = 0.156\nsamples = 94\nvalue = [86, 8]"] ;
551 -> 552 ;
553 [label="gini = 0.18\nsamples = 10\nvalue = [9, 1]"] ;
551 -> 553 ;
554 [label="X[32] <= 0.5\ngini = 0.444\nsamples = 3\nvalue = [2, 1]"] ;
546 -> 554 ;
555 [label="gini = 0.0\nsamples = 1\nvalue = [1, 0]"] ;
554 -> 555 ;
556 [label="gini = 0.5\nsamples = 2\nvalue = [1, 1]"] ;
554 -> 556 ;
557 [label="gini = 0.0\nsamples = 18\nvalue = [18, 0]"] ;
543 -> 557 ;
558 [label="X[28] <= 0.5\ngini = 0.375\nsamples = 4\nvalue = [3, 1]"] ;
542 -> 558 ;
559 [label="gini = 0.0\nsamples = 3\nvalue = [3, 0]"] ;
558 -> 559 ;
560 [label="gini = 0.0\nsamples = 1\nvalue = [0, 1]"] ;
558 -> 560 ;
561 [label="X[8] <= 0.5\ngini = 0.105\nsamples = 36\nvalue = [34, 2]"] ;
541 -> 561 ;
562 [label="X[23] <= 0.5\ngini = 0.057\nsamples = 34\nvalue = [33, 1]"] ;
561 -> 562 ;
563 [label="gini = 0.0\nsamples = 6\nvalue = [6, 0]"] ;
562 -> 563 ;
564 [label="X[3] <= 0.5\ngini = 0.069\nsamples = 28\nvalue = [27, 1]"] ;
562 -> 564 ;
565 [label="gini = 0.077\nsamples = 25\nvalue = [24, 1]"] ;
564 -> 565 ;
566 [label="gini = 0.0\nsamples = 3\nvalue = [3, 0]"] ;
564 -> 566 ;
567 [label="X[2] <= 0.5\ngini = 0.5\nsamples = 2\nvalue = [1, 1]"] ;
561 -> 567 ;
568 [label="gini = 0.0\nsamples = 1\nvalue = [1, 0]"] ;
567 -> 568 ;
569 [label="gini = 0.0\nsamples = 1\nvalue = [0, 1]"] ;
567 -> 569 ;
570 [label="gini = 0.0\nsamples = 5\nvalue = [5, 0]"] ;
540 -> 570 ;
571 [label="X[23] <= 0.5\ngini = 0.278\nsamples = 18\nvalue = [15, 3]"] ;
539 -> 571 ;
572 [label="gini = 0.0\nsamples = 3\nvalue = [3, 0]"] ;
571 -> 572 ;
573 [label="X[54] <= 0.5\ngini = 0.32\nsamples = 15\nvalue = [12, 3]"] ;
571 -> 573 ;
574 [label="gini = 0.0\nsamples = 2\nvalue = [2, 0]"] ;
573 -> 574 ;
575 [label="X[41] <= 0.5\ngini = 0.355\nsamples = 13\nvalue = [10, 3]"] ;
573 -> 575 ;
576 [label="gini = 0.346\nsamples = 9\nvalue = [7, 2]"] ;
575 -> 576 ;
577 [label="gini = 0.375\nsamples = 4\nvalue = [3, 1]"] ;
575 -> 577 ;
578 [label="X[8] <= 0.5\ngini = 0.287\nsamples = 23\nvalue = [19, 4]"] ;
538 -> 578 ;
579 [label="X[28] <= 0.5\ngini = 0.236\nsamples = 22\nvalue = [19, 3]"] ;
578 -> 579 ;
580 [label="X[18] <= 0.5\ngini = 0.117\nsamples = 16\nvalue = [15, 1]"] ;
579 -> 580 ;
581 [label="gini = 0.0\nsamples = 3\nvalue = [3, 0]"] ;
580 -> 581 ;
582 [label="X[54] <= 0.5\ngini = 0.142\nsamples = 13\nvalue = [12, 1]"] ;
580 -> 582 ;
583 [label="gini = 0.0\nsamples = 2\nvalue = [2, 0]"] ;
582 -> 583 ;
584 [label="X[26] <= 0.5\ngini = 0.165\nsamples = 11\nvalue = [10, 1]"] ;
582 -> 584 ;
585 [label="gini = 0.18\nsamples = 10\nvalue = [9, 1]"] ;
584 -> 585 ;
586 [label="gini = 0.0\nsamples = 1\nvalue = [1, 0]"] ;
584 -> 586 ;
587 [label="X[3] <= 0.5\ngini = 0.444\nsamples = 6\nvalue = [4, 2]"] ;
579 -> 587 ;
588 [label="X[52] <= 0.5\ngini = 0.48\nsamples = 5\nvalue = [3, 2]"] ;
587 -> 588 ;
589 [label="gini = 0.5\nsamples = 4\nvalue = [2, 2]"] ;
588 -> 589 ;
590 [label="gini = 0.0\nsamples = 1\nvalue = [1, 0]"] ;
588 -> 590 ;
591 [label="gini = 0.0\nsamples = 1\nvalue = [1, 0]"] ;
587 -> 591 ;
592 [label="gini = 0.0\nsamples = 1\nvalue = [0, 1]"] ;
578 -> 592 ;
593 [label="gini = 0.0\nsamples = 10\nvalue = [10, 0]"] ;
537 -> 593 ;
594 [label="gini = 0.0\nsamples = 16\nvalue = [16, 0]"] ;
536 -> 594 ;
595 [label="X[23] <= 0.5\ngini = 0.298\nsamples = 11\nvalue = [9, 2]"] ;
535 -> 595 ;
596 [label="gini = 0.0\nsamples = 3\nvalue = [3, 0]"] ;
595 -> 596 ;
597 [label="X[32] <= 0.5\ngini = 0.375\nsamples = 8\nvalue = [6, 2]"] ;
595 -> 597 ;
598 [label="X[34] <= 0.5\ngini = 0.278\nsamples = 6\nvalue = [5, 1]"] ;
597 -> 598 ;
599 [label="X[18] <= 0.5\ngini = 0.32\nsamples = 5\nvalue = [4, 1]"] ;
598 -> 599 ;
600 [label="gini = 0.0\nsamples = 1\nvalue = [1, 0]"] ;
599 -> 600 ;
601 [label="X[52] <= 0.5\ngini = 0.375\nsamples = 4\nvalue = [3, 1]"] ;
599 -> 601 ;
602 [label="gini = 0.444\nsamples = 3\nvalue = [2, 1]"] ;
601 -> 602 ;
603 [label="gini = 0.0\nsamples = 1\nvalue = [1, 0]"] ;
601 -> 603 ;
604 [label="gini = 0.0\nsamples = 1\nvalue = [1, 0]"] ;
598 -> 604 ;
605 [label="gini = 0.5\nsamples = 2\nvalue = [1, 1]"] ;
597 -> 605 ;
606 [label="X[23] <= 0.5\ngini = 0.249\nsamples = 48\nvalue = [41, 7]"] ;
534 -> 606 ;
607 [label="gini = 0.0\nsamples = 8\nvalue = [8, 0]"] ;
606 -> 607 ;
608 [label="X[14] <= 0.5\ngini = 0.289\nsamples = 40\nvalue = [33, 7]"] ;
606 -> 608 ;
609 [label="X[54] <= 0.5\ngini = 0.313\nsamples = 36\nvalue = [29, 7]"] ;
608 -> 609 ;
610 [label="gini = 0.0\nsamples = 2\nvalue = [2, 0]"] ;
609 -> 610 ;
611 [label="X[32] <= 0.5\ngini = 0.327\nsamples = 34\nvalue = [27, 7]"] ;
609 -> 611 ;
612 [label="X[41] <= 0.5\ngini = 0.375\nsamples = 16\nvalue = [12, 4]"] ;
611 -> 612 ;
613 [label="gini = 0.375\nsamples = 8\nvalue = [6, 2]"] ;
612 -> 613 ;
614 [label="gini = 0.375\nsamples = 8\nvalue = [6, 2]"] ;
612 -> 614 ;
615 [label="gini = 0.278\nsamples = 18\nvalue = [15, 3]"] ;
611 -> 615 ;
616 [label="gini = 0.0\nsamples = 4\nvalue = [4, 0]"] ;
608 -> 616 ;
617 [label="X[8] <= 0.5\ngini = 0.099\nsamples = 96\nvalue = [91, 5]"] ;
533 -> 617 ;
618 [label="X[23] <= 0.5\ngini = 0.087\nsamples = 88\nvalue = [84, 4]"] ;
617 -> 618 ;
619 [label="gini = 0.0\nsamples = 11\nvalue = [11, 0]"] ;
618 -> 619 ;
620 [label="X[18] <= 0.5\ngini = 0.098\nsamples = 77\nvalue = [73, 4]"] ;
618 -> 620 ;
621 [label="gini = 0.0\nsamples = 6\nvalue = [6, 0]"] ;
620 -> 621 ;
622 [label="X[4] <= 0.5\ngini = 0.106\nsamples = 71\nvalue = [67, 4]"] ;
620 -> 622 ;
623 [label="X[52] <= 0.5\ngini = 0.116\nsamples = 65\nvalue = [61, 4]"] ;
622 -> 623 ;
624 [label="gini = 0.119\nsamples = 63\nvalue = [59, 4]"] ;
623 -> 624 ;
625 [label="gini = 0.0\nsamples = 2\nvalue = [2, 0]"] ;
623 -> 625 ;
626 [label="gini = 0.0\nsamples = 6\nvalue = [6, 0]"] ;
622 -> 626 ;
627 [label="X[28] <= 0.5\ngini = 0.219\nsamples = 8\nvalue = [7, 1]"] ;
617 -> 627 ;
628 [label="gini = 0.278\nsamples = 6\nvalue = [5, 1]"] ;
627 -> 628 ;
629 [label="gini = 0.0\nsamples = 2\nvalue = [2, 0]"] ;
627 -> 629 ;
630 [label="gini = 0.0\nsamples = 19\nvalue = [19, 0]"] ;
532 -> 630 ;
631 [label="gini = 0.0\nsamples = 23\nvalue = [23, 0]"] ;
531 -> 631 ;
632 [label="X[43] <= 0.5\ngini = 0.375\nsamples = 8\nvalue = [6, 2]"] ;
530 -> 632 ;
633 [label="X[2] <= 0.5\ngini = 0.278\nsamples = 6\nvalue = [5, 1]"] ;
632 -> 633 ;
634 [label="gini = 0.0\nsamples = 1\nvalue = [1, 0]"] ;
633 -> 634 ;
635 [label="X[34] <= 0.5\ngini = 0.32\nsamples = 5\nvalue = [4, 1]"] ;
633 -> 635 ;
636 [label="X[54] <= 0.5\ngini = 0.375\nsamples = 4\nvalue = [3, 1]"] ;
635 -> 636 ;
637 [label="gini = 0.0\nsamples = 1\nvalue = [1, 0]"] ;
636 -> 637 ;
638 [label="gini = 0.444\nsamples = 3\nvalue = [2, 1]"] ;
636 -> 638 ;
639 [label="gini = 0.0\nsamples = 1\nvalue = [1, 0]"] ;
635 -> 639 ;
640 [label="gini = 0.5\nsamples = 2\nvalue = [1, 1]"] ;
632 -> 640 ;
641 [label="X[40] <= 0.5\ngini = 0.32\nsamples = 10\nvalue = [8, 2]"] ;
487 -> 641 ;
642 [label="X[14] <= 0.5\ngini = 0.219\nsamples = 8\nvalue = [7, 1]"] ;
641 -> 642 ;
643 [label="gini = 0.0\nsamples = 7\nvalue = [7, 0]"] ;
642 -> 643 ;
644 [label="gini = 0.0\nsamples = 1\nvalue = [0, 1]"] ;
642 -> 644 ;
645 [label="X[18] <= 0.5\ngini = 0.5\nsamples = 2\nvalue = [1, 1]"] ;
641 -> 645 ;
646 [label="gini = 0.0\nsamples = 1\nvalue = [1, 0]"] ;
645 -> 646 ;
647 [label="gini = 0.0\nsamples = 1\nvalue = [0, 1]"] ;
645 -> 647 ;
648 [label="X[41] <= 0.5\ngini = 0.346\nsamples = 9\nvalue = [7, 2]"] ;
486 -> 648 ;
649 [label="X[18] <= 0.5\ngini = 0.219\nsamples = 8\nvalue = [7, 1]"] ;
648 -> 649 ;
650 [label="gini = 0.0\nsamples = 4\nvalue = [4, 0]"] ;
649 -> 650 ;
651 [label="X[4] <= 0.5\ngini = 0.375\nsamples = 4\nvalue = [3, 1]"] ;
649 -> 651 ;
652 [label="gini = 0.444\nsamples = 3\nvalue = [2, 1]"] ;
651 -> 652 ;
653 [label="gini = 0.0\nsamples = 1\nvalue = [1, 0]"] ;
651 -> 653 ;
654 [label="gini = 0.0\nsamples = 1\nvalue = [0, 1]"] ;
648 -> 654 ;
655 [label="X[46] <= 0.5\ngini = 0.26\nsamples = 39\nvalue = [33, 6]"] ;
485 -> 655 ;
656 [label="X[2] <= 0.5\ngini = 0.229\nsamples = 38\nvalue = [33, 5]"] ;
655 -> 656 ;
657 [label="gini = 0.0\nsamples = 11\nvalue = [11, 0]"] ;
656 -> 657 ;
658 [label="X[54] <= 0.5\ngini = 0.302\nsamples = 27\nvalue = [22, 5]"] ;
656 -> 658 ;
659 [label="gini = 0.0\nsamples = 3\nvalue = [3, 0]"] ;
658 -> 659 ;
660 [label="X[41] <= 0.5\ngini = 0.33\nsamples = 24\nvalue = [19, 5]"] ;
658 -> 660 ;
661 [label="X[28] <= 0.5\ngini = 0.278\nsamples = 18\nvalue = [15, 3]"] ;
660 -> 661 ;
662 [label="X[48] <= 0.5\ngini = 0.231\nsamples = 15\nvalue = [13, 2]"] ;
661 -> 662 ;
663 [label="X[43] <= 0.5\ngini = 0.165\nsamples = 11\nvalue = [10, 1]"] ;
662 -> 663 ;
664 [label="gini = 0.0\nsamples = 7\nvalue = [7, 0]"] ;
663 -> 664 ;
665 [label="gini = 0.375\nsamples = 4\nvalue = [3, 1]"] ;
663 -> 665 ;
666 [label="X[23] <= 0.5\ngini = 0.375\nsamples = 4\nvalue = [3, 1]"] ;
662 -> 666 ;
667 [label="gini = 0.0\nsamples = 1\nvalue = [1, 0]"] ;
666 -> 667 ;
668 [label="gini = 0.444\nsamples = 3\nvalue = [2, 1]"] ;
666 -> 668 ;
669 [label="gini = 0.444\nsamples = 3\nvalue = [2, 1]"] ;
661 -> 669 ;
670 [label="gini = 0.444\nsamples = 6\nvalue = [4, 2]"] ;
660 -> 670 ;
671 [label="gini = 0.0\nsamples = 1\nvalue = [0, 1]"] ;
655 -> 671 ;
672 [label="X[1] <= 0.5\ngini = 0.031\nsamples = 64\nvalue = [63, 1]"] ;
484 -> 672 ;
673 [label="gini = 0.0\nsamples = 60\nvalue = [60, 0]"] ;
672 -> 673 ;
674 [label="X[45] <= 0.5\ngini = 0.375\nsamples = 4\nvalue = [3, 1]"] ;
672 -> 674 ;
675 [label="gini = 0.0\nsamples = 2\nvalue = [2, 0]"] ;
674 -> 675 ;
676 [label="X[18] <= 0.5\ngini = 0.5\nsamples = 2\nvalue = [1, 1]"] ;
674 -> 676 ;
677 [label="gini = 0.0\nsamples = 1\nvalue = [1, 0]"] ;
676 -> 677 ;
678 [label="gini = 0.0\nsamples = 1\nvalue = [0, 1]"] ;
676 -> 678 ;
679 [label="X[13] <= 0.5\ngini = 0.248\nsamples = 62\nvalue = [53, 9]"] ;
481 -> 679 ;
680 [label="X[3] <= 0.5\ngini = 0.206\nsamples = 60\nvalue = [53, 7]"] ;
679 -> 680 ;
681 [label="X[82] <= 0.5\ngini = 0.16\nsamples = 57\nvalue = [52, 5]"] ;
680 -> 681 ;
682 [label="X[18] <= 0.5\ngini = 0.135\nsamples = 55\nvalue = [51, 4]"] ;
681 -> 682 ;
683 [label="gini = 0.0\nsamples = 17\nvalue = [17, 0]"] ;
682 -> 683 ;
684 [label="X[32] <= 0.5\ngini = 0.188\nsamples = 38\nvalue = [34, 4]"] ;
682 -> 684 ;
685 [label="X[1] <= 0.5\ngini = 0.133\nsamples = 28\nvalue = [26, 2]"] ;
684 -> 685 ;
686 [label="X[43] <= 0.5\ngini = 0.08\nsamples = 24\nvalue = [23, 1]"] ;
685 -> 686 ;
687 [label="gini = 0.0\nsamples = 17\nvalue = [17, 0]"] ;
686 -> 687 ;
688 [label="X[45] <= 0.5\ngini = 0.245\nsamples = 7\nvalue = [6, 1]"] ;
686 -> 688 ;
689 [label="gini = 0.32\nsamples = 5\nvalue = [4, 1]"] ;
688 -> 689 ;
690 [label="gini = 0.0\nsamples = 2\nvalue = [2, 0]"] ;
688 -> 690 ;
691 [label="X[34] <= 0.5\ngini = 0.375\nsamples = 4\nvalue = [3, 1]"] ;
685 -> 691 ;
692 [label="X[54] <= 0.5\ngini = 0.444\nsamples = 3\nvalue = [2, 1]"] ;
691 -> 692 ;
693 [label="gini = 0.0\nsamples = 1\nvalue = [1, 0]"] ;
692 -> 693 ;
694 [label="gini = 0.5\nsamples = 2\nvalue = [1, 1]"] ;
692 -> 694 ;
695 [label="gini = 0.0\nsamples = 1\nvalue = [1, 0]"] ;
691 -> 695 ;
696 [label="X[48] <= 0.5\ngini = 0.32\nsamples = 10\nvalue = [8, 2]"] ;
684 -> 696 ;
697 [label="X[4] <= 0.5\ngini = 0.245\nsamples = 7\nvalue = [6, 1]"] ;
696 -> 697 ;
698 [label="gini = 0.0\nsamples = 3\nvalue = [3, 0]"] ;
697 -> 698 ;
699 [label="gini = 0.375\nsamples = 4\nvalue = [3, 1]"] ;
697 -> 699 ;
700 [label="gini = 0.444\nsamples = 3\nvalue = [2, 1]"] ;
696 -> 700 ;
701 [label="X[46] <= 0.5\ngini = 0.5\nsamples = 2\nvalue = [1, 1]"] ;
681 -> 701 ;
702 [label="gini = 0.0\nsamples = 1\nvalue = [0, 1]"] ;
701 -> 702 ;
703 [label="gini = 0.0\nsamples = 1\nvalue = [1, 0]"] ;
701 -> 703 ;
704 [label="X[41] <= 0.5\ngini = 0.444\nsamples = 3\nvalue = [1, 2]"] ;
680 -> 704 ;
705 [label="gini = 0.0\nsamples = 1\nvalue = [1, 0]"] ;
704 -> 705 ;
706 [label="gini = 0.0\nsamples = 2\nvalue = [0, 2]"] ;
704 -> 706 ;
707 [label="gini = 0.0\nsamples = 2\nvalue = [0, 2]"] ;
679 -> 707 ;
708 [label="X[18] <= 0.5\ngini = 0.02\nsamples = 98\nvalue = [97, 1]"] ;
480 -> 708 ;
709 [label="gini = 0.0\nsamples = 37\nvalue = [37, 0]"] ;
708 -> 709 ;
710 [label="X[23] <= 0.5\ngini = 0.032\nsamples = 61\nvalue = [60, 1]"] ;
708 -> 710 ;
711 [label="gini = 0.0\nsamples = 19\nvalue = [19, 0]"] ;
710 -> 711 ;
712 [label="X[45] <= 0.5\ngini = 0.046\nsamples = 42\nvalue = [41, 1]"] ;
710 -> 712 ;
713 [label="gini = 0.0\nsamples = 12\nvalue = [12, 0]"] ;
712 -> 713 ;
714 [label="X[2] <= 0.5\ngini = 0.064\nsamples = 30\nvalue = [29, 1]"] ;
712 -> 714 ;
715 [label="gini = 0.0\nsamples = 5\nvalue = [5, 0]"] ;
714 -> 715 ;
716 [label="X[54] <= 0.5\ngini = 0.077\nsamples = 25\nvalue = [24, 1]"] ;
714 -> 716 ;
717 [label="gini = 0.0\nsamples = 4\nvalue = [4, 0]"] ;
716 -> 717 ;
718 [label="X[95] <= 0.5\ngini = 0.091\nsamples = 21\nvalue = [20, 1]"] ;
716 -> 718 ;
719 [label="gini = 0.0\nsamples = 2\nvalue = [2, 0]"] ;
718 -> 719 ;
720 [label="gini = 0.1\nsamples = 19\nvalue = [18, 1]"] ;
718 -> 720 ;
721 [label="X[52] <= 0.5\ngini = 0.031\nsamples = 127\nvalue = [125, 2]"] ;
479 -> 721 ;
722 [label="X[48] <= 0.5\ngini = 0.019\nsamples = 102\nvalue = [101, 1]"] ;
721 -> 722 ;
723 [label="gini = 0.0\nsamples = 75\nvalue = [75, 0]"] ;
722 -> 723 ;
724 [label="X[23] <= 0.5\ngini = 0.071\nsamples = 27\nvalue = [26, 1]"] ;
722 -> 724 ;
725 [label="gini = 0.0\nsamples = 10\nvalue = [10, 0]"] ;
724 -> 725 ;
726 [label="X[18] <= 0.5\ngini = 0.111\nsamples = 17\nvalue = [16, 1]"] ;
724 -> 726 ;
727 [label="gini = 0.0\nsamples = 4\nvalue = [4, 0]"] ;
726 -> 727 ;
728 [label="gini = 0.142\nsamples = 13\nvalue = [12, 1]"] ;
726 -> 728 ;
729 [label="X[23] <= 0.5\ngini = 0.077\nsamples = 25\nvalue = [24, 1]"] ;
721 -> 729 ;
730 [label="gini = 0.0\nsamples = 14\nvalue = [14, 0]"] ;
729 -> 730 ;
731 [label="X[18] <= 0.5\ngini = 0.165\nsamples = 11\nvalue = [10, 1]"] ;
729 -> 731 ;
732 [label="gini = 0.0\nsamples = 5\nvalue = [5, 0]"] ;
731 -> 732 ;
733 [label="X[45] <= 0.5\ngini = 0.278\nsamples = 6\nvalue = [5, 1]"] ;
731 -> 733 ;
734 [label="gini = 0.0\nsamples = 2\nvalue = [2, 0]"] ;
733 -> 734 ;
735 [label="gini = 0.375\nsamples = 4\nvalue = [3, 1]"] ;
733 -> 735 ;
736 [label="X[1] <= 0.5\ngini = 0.408\nsamples = 7\nvalue = [5, 2]"] ;
478 -> 736 ;
737 [label="X[13] <= 0.5\ngini = 0.278\nsamples = 6\nvalue = [5, 1]"] ;
736 -> 737 ;
738 [label="gini = 0.0\nsamples = 5\nvalue = [5, 0]"] ;
737 -> 738 ;
739 [label="gini = 0.0\nsamples = 1\nvalue = [0, 1]"] ;
737 -> 739 ;
740 [label="gini = 0.0\nsamples = 1\nvalue = [0, 1]"] ;
736 -> 740 ;
741 [label="X[5] <= 0.5\ngini = 0.016\nsamples = 126\nvalue = [125, 1]"] ;
477 -> 741 ;
742 [label="gini = 0.0\nsamples = 121\nvalue = [121, 0]"] ;
741 -> 742 ;
743 [label="X[32] <= 0.5\ngini = 0.32\nsamples = 5\nvalue = [4, 1]"] ;
741 -> 743 ;
744 [label="gini = 0.0\nsamples = 4\nvalue = [4, 0]"] ;
743 -> 744 ;
745 [label="gini = 0.0\nsamples = 1\nvalue = [0, 1]"] ;
743 -> 745 ;
746 [label="X[12] <= 0.5\ngini = 0.5\nsamples = 2\nvalue = [1, 1]"] ;
476 -> 746 ;
747 [label="gini = 0.0\nsamples = 1\nvalue = [1, 0]"] ;
746 -> 747 ;
748 [label="gini = 0.0\nsamples = 1\nvalue = [0, 1]"] ;
746 -> 748 ;
749 [label="X[18] <= 0.5\ngini = 0.444\nsamples = 6\nvalue = [4, 2]"] ;
475 -> 749 ;
750 [label="gini = 0.0\nsamples = 1\nvalue = [0, 1]"] ;
749 -> 750 ;
751 [label="X[32] <= 0.5\ngini = 0.32\nsamples = 5\nvalue = [4, 1]"] ;
749 -> 751 ;
752 [label="gini = 0.0\nsamples = 3\nvalue = [3, 0]"] ;
751 -> 752 ;
753 [label="X[4] <= 0.5\ngini = 0.5\nsamples = 2\nvalue = [1, 1]"] ;
751 -> 753 ;
754 [label="gini = 0.0\nsamples = 1\nvalue = [0, 1]"] ;
753 -> 754 ;
755 [label="gini = 0.0\nsamples = 1\nvalue = [1, 0]"] ;
753 -> 755 ;
756 [label="X[46] <= 0.5\ngini = 0.351\nsamples = 22\nvalue = [17, 5]"] ;
474 -> 756 ;
757 [label="X[32] <= 0.5\ngini = 0.255\nsamples = 20\nvalue = [17, 3]"] ;
756 -> 757 ;
758 [label="X[48] <= 0.5\ngini = 0.111\nsamples = 17\nvalue = [16, 1]"] ;
757 -> 758 ;
759 [label="gini = 0.0\nsamples = 15\nvalue = [15, 0]"] ;
758 -> 759 ;
760 [label="X[30] <= 0.5\ngini = 0.5\nsamples = 2\nvalue = [1, 1]"] ;
758 -> 760 ;
761 [label="gini = 0.0\nsamples = 1\nvalue = [0, 1]"] ;
760 -> 761 ;
762 [label="gini = 0.0\nsamples = 1\nvalue = [1, 0]"] ;
760 -> 762 ;
763 [label="X[2] <= 0.5\ngini = 0.444\nsamples = 3\nvalue = [1, 2]"] ;
757 -> 763 ;
764 [label="gini = 0.0\nsamples = 1\nvalue = [1, 0]"] ;
763 -> 764 ;
765 [label="gini = 0.0\nsamples = 2\nvalue = [0, 2]"] ;
763 -> 765 ;
766 [label="gini = 0.0\nsamples = 2\nvalue = [0, 2]"] ;
756 -> 766 ;
767 [label="X[89] <= 0.5\ngini = 0.213\nsamples = 371\nvalue = [326, 45]"] ;
473 -> 767 ;
768 [label="X[29] <= 0.5\ngini = 0.21\nsamples = 370\nvalue = [326, 44]"] ;
767 -> 768 ;
769 [label="X[32] <= 0.5\ngini = 0.198\nsamples = 359\nvalue = [319, 40]"] ;
768 -> 769 ;
770 [label="X[61] <= 0.5\ngini = 0.169\nsamples = 258\nvalue = [234, 24]"] ;
769 -> 770 ;
771 [label="X[43] <= 0.5\ngini = 0.164\nsamples = 256\nvalue = [233, 23]"] ;
770 -> 771 ;
772 [label="X[41] <= 0.5\ngini = 0.145\nsamples = 228\nvalue = [210, 18]"] ;
771 -> 772 ;
773 [label="X[45] <= 0.5\ngini = 0.124\nsamples = 181\nvalue = [169, 12]"] ;
772 -> 773 ;
774 [label="X[2] <= 0.5\ngini = 0.058\nsamples = 67\nvalue = [65, 2]"] ;
773 -> 774 ;
775 [label="gini = 0.0\nsamples = 29\nvalue = [29, 0]"] ;
774 -> 775 ;
776 [label="X[30] <= 0.5\ngini = 0.1\nsamples = 38\nvalue = [36, 2]"] ;
774 -> 776 ;
777 [label="X[48] <= 0.5\ngini = 0.064\nsamples = 30\nvalue = [29, 1]"] ;
776 -> 777 ;
778 [label="gini = 0.0\nsamples = 19\nvalue = [19, 0]"] ;
777 -> 778 ;
779 [label="X[36] <= 0.5\ngini = 0.165\nsamples = 11\nvalue = [10, 1]"] ;
777 -> 779 ;
780 [label="gini = 0.0\nsamples = 4\nvalue = [4, 0]"] ;
779 -> 780 ;
781 [label="X[50] <= 0.5\ngini = 0.245\nsamples = 7\nvalue = [6, 1]"] ;
779 -> 781 ;
782 [label="gini = 0.278\nsamples = 6\nvalue = [5, 1]"] ;
781 -> 782 ;
783 [label="gini = 0.0\nsamples = 1\nvalue = [1, 0]"] ;
781 -> 783 ;
784 [label="X[47] <= 0.5\ngini = 0.219\nsamples = 8\nvalue = [7, 1]"] ;
776 -> 784 ;
785 [label="gini = 0.0\nsamples = 5\nvalue = [5, 0]"] ;
784 -> 785 ;
786 [label="X[28] <= 0.5\ngini = 0.444\nsamples = 3\nvalue = [2, 1]"] ;
784 -> 786 ;
787 [label="gini = 0.0\nsamples = 1\nvalue = [0, 1]"] ;
786 -> 787 ;
788 [label="gini = 0.0\nsamples = 2\nvalue = [2, 0]"] ;
786 -> 788 ;
789 [label="X[5] <= 0.5\ngini = 0.16\nsamples = 114\nvalue = [104, 10]"] ;
773 -> 789 ;
790 [label="X[23] <= 0.5\ngini = 0.136\nsamples = 109\nvalue = [101, 8]"] ;
789 -> 790 ;
791 [label="X[54] <= 0.5\ngini = 0.278\nsamples = 24\nvalue = [20, 4]"] ;
790 -> 791 ;
792 [label="gini = 0.0\nsamples = 11\nvalue = [11, 0]"] ;
791 -> 792 ;
793 [label="X[35] <= 0.5\ngini = 0.426\nsamples = 13\nvalue = [9, 4]"] ;
791 -> 793 ;
794 [label="X[30] <= 0.5\ngini = 0.463\nsamples = 11\nvalue = [7, 4]"] ;
793 -> 794 ;
795 [label="X[26] <= 0.5\ngini = 0.48\nsamples = 10\nvalue = [6, 4]"] ;
794 -> 795 ;
796 [label="X[60] <= 0.5\ngini = 0.444\nsamples = 9\nvalue = [6, 3]"] ;
795 -> 796 ;
797 [label="X[4] <= 0.5\ngini = 0.469\nsamples = 8\nvalue = [5, 3]"] ;
796 -> 797 ;
798 [label="X[36] <= 0.5\ngini = 0.49\nsamples = 7\nvalue = [4, 3]"] ;
797 -> 798 ;
799 [label="X[40] <= 0.5\ngini = 0.5\nsamples = 4\nvalue = [2, 2]"] ;
798 -> 799 ;
800 [label="gini = 0.5\nsamples = 2\nvalue = [1, 1]"] ;
799 -> 800 ;
801 [label="gini = 0.5\nsamples = 2\nvalue = [1, 1]"] ;
799 -> 801 ;
802 [label="gini = 0.444\nsamples = 3\nvalue = [2, 1]"] ;
798 -> 802 ;
803 [label="gini = 0.0\nsamples = 1\nvalue = [1, 0]"] ;
797 -> 803 ;
804 [label="gini = 0.0\nsamples = 1\nvalue = [1, 0]"] ;
796 -> 804 ;
805 [label="gini = 0.0\nsamples = 1\nvalue = [0, 1]"] ;
795 -> 805 ;
806 [label="gini = 0.0\nsamples = 1\nvalue = [1, 0]"] ;
794 -> 806 ;
807 [label="gini = 0.0\nsamples = 2\nvalue = [2, 0]"] ;
793 -> 807 ;
808 [label="X[0] <= 0.5\ngini = 0.09\nsamples = 85\nvalue = [81, 4]"] ;
790 -> 808 ;
809 [label="X[52] <= 0.5\ngini = 0.051\nsamples = 76\nvalue = [74, 2]"] ;
808 -> 809 ;
810 [label="X[35] <= 0.5\ngini = 0.029\nsamples = 69\nvalue = [68, 1]"] ;
809 -> 810 ;
811 [label="gini = 0.0\nsamples = 58\nvalue = [58, 0]"] ;
810 -> 811 ;
812 [label="X[2] <= 0.5\ngini = 0.165\nsamples = 11\nvalue = [10, 1]"] ;
810 -> 812 ;
813 [label="gini = 0.0\nsamples = 1\nvalue = [1, 0]"] ;
812 -> 813 ;
814 [label="gini = 0.18\nsamples = 10\nvalue = [9, 1]"] ;
812 -> 814 ;
815 [label="X[37] <= 0.5\ngini = 0.245\nsamples = 7\nvalue = [6, 1]"] ;
809 -> 815 ;
816 [label="gini = 0.0\nsamples = 4\nvalue = [4, 0]"] ;
815 -> 816 ;
817 [label="gini = 0.444\nsamples = 3\nvalue = [2, 1]"] ;
815 -> 817 ;
818 [label="X[30] <= 0.5\ngini = 0.346\nsamples = 9\nvalue = [7, 2]"] ;
808 -> 818 ;
819 [label="gini = 0.0\nsamples = 5\nvalue = [5, 0]"] ;
818 -> 819 ;
820 [label="gini = 0.5\nsamples = 4\nvalue = [2, 2]"] ;
818 -> 820 ;
821 [label="X[54] <= 0.5\ngini = 0.48\nsamples = 5\nvalue = [3, 2]"] ;
789 -> 821 ;
822 [label="gini = 0.0\nsamples = 1\nvalue = [0, 1]"] ;
821 -> 822 ;
823 [label="X[40] <= 0.5\ngini = 0.375\nsamples = 4\nvalue = [3, 1]"] ;
821 -> 823 ;
824 [label="gini = 0.0\nsamples = 3\nvalue = [3, 0]"] ;
823 -> 824 ;
825 [label="gini = 0.0\nsamples = 1\nvalue = [0, 1]"] ;
823 -> 825 ;
826 [label="X[3] <= 0.5\ngini = 0.223\nsamples = 47\nvalue = [41, 6]"] ;
772 -> 826 ;
827 [label="X[47] <= 0.5\ngini = 0.201\nsamples = 44\nvalue = [39, 5]"] ;
826 -> 827 ;
828 [label="X[54] <= 0.5\ngini = 0.234\nsamples = 37\nvalue = [32, 5]"] ;
827 -> 828 ;
829 [label="gini = 0.0\nsamples = 5\nvalue = [5, 0]"] ;
828 -> 829 ;
830 [label="X[45] <= 0.5\ngini = 0.264\nsamples = 32\nvalue = [27, 5]"] ;
828 -> 830 ;
831 [label="X[28] <= 0.5\ngini = 0.375\nsamples = 8\nvalue = [6, 2]"] ;
830 -> 831 ;
832 [label="X[2] <= 0.5\ngini = 0.444\nsamples = 6\nvalue = [4, 2]"] ;
831 -> 832 ;
833 [label="gini = 0.5\nsamples = 2\nvalue = [1, 1]"] ;
832 -> 833 ;
834 [label="gini = 0.375\nsamples = 4\nvalue = [3, 1]"] ;
832 -> 834 ;
835 [label="gini = 0.0\nsamples = 2\nvalue = [2, 0]"] ;
831 -> 835 ;
836 [label="X[28] <= 0.5\ngini = 0.219\nsamples = 24\nvalue = [21, 3]"] ;
830 -> 836 ;
837 [label="X[23] <= 0.5\ngini = 0.117\nsamples = 16\nvalue = [15, 1]"] ;
836 -> 837 ;
838 [label="gini = 0.0\nsamples = 2\nvalue = [2, 0]"] ;
837 -> 838 ;
839 [label="X[4] <= 0.5\ngini = 0.133\nsamples = 14\nvalue = [13, 1]"] ;
837 -> 839 ;
840 [label="gini = 0.142\nsamples = 13\nvalue = [12, 1]"] ;
839 -> 840 ;
841 [label="gini = 0.0\nsamples = 1\nvalue = [1, 0]"] ;
839 -> 841 ;
842 [label="X[2] <= 0.5\ngini = 0.375\nsamples = 8\nvalue = [6, 2]"] ;
836 -> 842 ;
843 [label="gini = 0.0\nsamples = 2\nvalue = [2, 0]"] ;
842 -> 843 ;
844 [label="gini = 0.444\nsamples = 6\nvalue = [4, 2]"] ;
842 -> 844 ;
845 [label="gini = 0.0\nsamples = 7\nvalue = [7, 0]"] ;
827 -> 845 ;
846 [label="X[47] <= 0.5\ngini = 0.444\nsamples = 3\nvalue = [2, 1]"] ;
826 -> 846 ;
847 [label="gini = 0.0\nsamples = 2\nvalue = [2, 0]"] ;
846 -> 847 ;
848 [label="gini = 0.0\nsamples = 1\nvalue = [0, 1]"] ;
846 -> 848 ;
849 [label="X[48] <= 0.5\ngini = 0.293\nsamples = 28\nvalue = [23, 5]"] ;
771 -> 849 ;
850 [label="X[1] <= 0.5\ngini = 0.245\nsamples = 21\nvalue = [18, 3]"] ;
849 -> 850 ;
851 [label="X[23] <= 0.5\ngini = 0.18\nsamples = 20\nvalue = [18, 2]"] ;
850 -> 851 ;
852 [label="gini = 0.0\nsamples = 3\nvalue = [3, 0]"] ;
851 -> 852 ;
853 [label="X[2] <= 0.5\ngini = 0.208\nsamples = 17\nvalue = [15, 2]"] ;
851 -> 853 ;
854 [label="gini = 0.0\nsamples = 2\nvalue = [2, 0]"] ;
853 -> 854 ;
855 [label="X[45] <= 0.5\ngini = 0.231\nsamples = 15\nvalue = [13, 2]"] ;
853 -> 855 ;
856 [label="gini = 0.0\nsamples = 2\nvalue = [2, 0]"] ;
855 -> 856 ;
857 [label="X[52] <= 0.5\ngini = 0.26\nsamples = 13\nvalue = [11, 2]"] ;
855 -> 857 ;
858 [label="gini = 0.278\nsamples = 12\nvalue = [10, 2]"] ;
857 -> 858 ;
859 [label="gini = 0.0\nsamples = 1\nvalue = [1, 0]"] ;
857 -> 859 ;
860 [label="gini = 0.0\nsamples = 1\nvalue = [0, 1]"] ;
850 -> 860 ;
861 [label="X[28] <= 0.5\ngini = 0.408\nsamples = 7\nvalue = [5, 2]"] ;
849 -> 861 ;
862 [label="X[2] <= 0.5\ngini = 0.278\nsamples = 6\nvalue = [5, 1]"] ;
861 -> 862 ;
863 [label="gini = 0.0\nsamples = 3\nvalue = [3, 0]"] ;
862 -> 863 ;
864 [label="X[23] <= 0.5\ngini = 0.444\nsamples = 3\nvalue = [2, 1]"] ;
862 -> 864 ;
865 [label="gini = 0.0\nsamples = 1\nvalue = [1, 0]"] ;
864 -> 865 ;
866 [label="gini = 0.5\nsamples = 2\nvalue = [1, 1]"] ;
864 -> 866 ;
867 [label="gini = 0.0\nsamples = 1\nvalue = [0, 1]"] ;
861 -> 867 ;
868 [label="X[23] <= 0.5\ngini = 0.5\nsamples = 2\nvalue = [1, 1]"] ;
770 -> 868 ;
869 [label="gini = 0.0\nsamples = 1\nvalue = [1, 0]"] ;
868 -> 869 ;
870 [label="gini = 0.0\nsamples = 1\nvalue = [0, 1]"] ;
868 -> 870 ;
871 [label="X[45] <= 0.5\ngini = 0.267\nsamples = 101\nvalue = [85, 16]"] ;
769 -> 871 ;
872 [label="X[23] <= 0.5\ngini = 0.358\nsamples = 30\nvalue = [23, 7]"] ;
871 -> 872 ;
873 [label="X[48] <= 0.5\ngini = 0.48\nsamples = 5\nvalue = [2, 3]"] ;
872 -> 873 ;
874 [label="X[4] <= 0.5\ngini = 0.444\nsamples = 3\nvalue = [2, 1]"] ;
873 -> 874 ;
875 [label="gini = 0.0\nsamples = 2\nvalue = [2, 0]"] ;
874 -> 875 ;
876 [label="gini = 0.0\nsamples = 1\nvalue = [0, 1]"] ;
874 -> 876 ;
877 [label="gini = 0.0\nsamples = 2\nvalue = [0, 2]"] ;
873 -> 877 ;
878 [label="X[47] <= 0.5\ngini = 0.269\nsamples = 25\nvalue = [21, 4]"] ;
872 -> 878 ;
879 [label="X[2] <= 0.5\ngini = 0.208\nsamples = 17\nvalue = [15, 2]"] ;
878 -> 879 ;
880 [label="gini = 0.0\nsamples = 2\nvalue = [2, 0]"] ;
879 -> 880 ;
881 [label="X[48] <= 0.5\ngini = 0.231\nsamples = 15\nvalue = [13, 2]"] ;
879 -> 881 ;
882 [label="gini = 0.0\nsamples = 1\nvalue = [1, 0]"] ;
881 -> 882 ;
883 [label="X[54] <= 0.5\ngini = 0.245\nsamples = 14\nvalue = [12, 2]"] ;
881 -> 883 ;
884 [label="gini = 0.0\nsamples = 1\nvalue = [1, 0]"] ;
883 -> 884 ;
885 [label="gini = 0.26\nsamples = 13\nvalue = [11, 2]"] ;
883 -> 885 ;
886 [label="X[87] <= 0.5\ngini = 0.375\nsamples = 8\nvalue = [6, 2]"] ;
878 -> 886 ;
887 [label="X[52] <= 0.5\ngini = 0.408\nsamples = 7\nvalue = [5, 2]"] ;
886 -> 887 ;
888 [label="gini = 0.444\nsamples = 6\nvalue = [4, 2]"] ;
887 -> 888 ;
889 [label="gini = 0.0\nsamples = 1\nvalue = [1, 0]"] ;
887 -> 889 ;
890 [label="gini = 0.0\nsamples = 1\nvalue = [1, 0]"] ;
886 -> 890 ;
891 [label="X[2] <= 0.5\ngini = 0.221\nsamples = 71\nvalue = [62, 9]"] ;
871 -> 891 ;
892 [label="X[28] <= 0.5\ngini = 0.1\nsamples = 19\nvalue = [18, 1]"] ;
891 -> 892 ;
893 [label="gini = 0.0\nsamples = 14\nvalue = [14, 0]"] ;
892 -> 893 ;
894 [label="X[54] <= 0.5\ngini = 0.32\nsamples = 5\nvalue = [4, 1]"] ;
892 -> 894 ;
895 [label="gini = 0.0\nsamples = 2\nvalue = [2, 0]"] ;
894 -> 895 ;
896 [label="gini = 0.444\nsamples = 3\nvalue = [2, 1]"] ;
894 -> 896 ;
897 [label="X[54] <= 0.5\ngini = 0.26\nsamples = 52\nvalue = [44, 8]"] ;
891 -> 897 ;
898 [label="gini = 0.0\nsamples = 3\nvalue = [3, 0]"] ;
897 -> 898 ;
899 [label="X[23] <= 0.5\ngini = 0.273\nsamples = 49\nvalue = [41, 8]"] ;
897 -> 899 ;
900 [label="X[26] <= 0.5\ngini = 0.198\nsamples = 9\nvalue = [8, 1]"] ;
899 -> 900 ;
901 [label="gini = 0.219\nsamples = 8\nvalue = [7, 1]"] ;
900 -> 901 ;
902 [label="gini = 0.0\nsamples = 1\nvalue = [1, 0]"] ;
900 -> 902 ;
903 [label="X[76] <= 0.5\ngini = 0.289\nsamples = 40\nvalue = [33, 7]"] ;
899 -> 903 ;
904 [label="gini = 0.295\nsamples = 39\nvalue = [32, 7]"] ;
903 -> 904 ;
905 [label="gini = 0.0\nsamples = 1\nvalue = [1, 0]"] ;
903 -> 905 ;
906 [label="X[32] <= 0.5\ngini = 0.463\nsamples = 11\nvalue = [7, 4]"] ;
768 -> 906 ;
907 [label="X[4] <= 0.5\ngini = 0.5\nsamples = 8\nvalue = [4, 4]"] ;
906 -> 907 ;
908 [label="X[34] <= 0.5\ngini = 0.444\nsamples = 6\nvalue = [2, 4]"] ;
907 -> 908 ;
909 [label="X[48] <= 0.5\ngini = 0.48\nsamples = 5\nvalue = [2, 3]"] ;
908 -> 909 ;
910 [label="X[3] <= 0.5\ngini = 0.5\nsamples = 4\nvalue = [2, 2]"] ;
909 -> 910 ;
911 [label="gini = 0.5\nsamples = 2\nvalue = [1, 1]"] ;
910 -> 911 ;
912 [label="gini = 0.5\nsamples = 2\nvalue = [1, 1]"] ;
910 -> 912 ;
913 [label="gini = 0.0\nsamples = 1\nvalue = [0, 1]"] ;
909 -> 913 ;
914 [label="gini = 0.0\nsamples = 1\nvalue = [0, 1]"] ;
908 -> 914 ;
915 [label="gini = 0.0\nsamples = 2\nvalue = [2, 0]"] ;
907 -> 915 ;
916 [label="gini = 0.0\nsamples = 3\nvalue = [3, 0]"] ;
906 -> 916 ;
917 [label="gini = 0.0\nsamples = 1\nvalue = [0, 1]"] ;
767 -> 917 ;
918 [label="X[18] <= 0.5\ngini = 0.369\nsamples = 41\nvalue = [31, 10]"] ;
472 -> 918 ;
919 [label="X[29] <= 0.5\ngini = 0.271\nsamples = 31\nvalue = [26, 5]"] ;
918 -> 919 ;
920 [label="X[69] <= 0.5\ngini = 0.231\nsamples = 30\nvalue = [26, 4]"] ;
919 -> 920 ;
921 [label="X[15] <= 0.5\ngini = 0.185\nsamples = 29\nvalue = [26, 3]"] ;
920 -> 921 ;
922 [label="X[48] <= 0.5\ngini = 0.1\nsamples = 19\nvalue = [18, 1]"] ;
921 -> 922 ;
923 [label="gini = 0.0\nsamples = 16\nvalue = [16, 0]"] ;
922 -> 923 ;
924 [label="X[28] <= 0.5\ngini = 0.444\nsamples = 3\nvalue = [2, 1]"] ;
922 -> 924 ;
925 [label="gini = 0.0\nsamples = 2\nvalue = [2, 0]"] ;
924 -> 925 ;
926 [label="gini = 0.0\nsamples = 1\nvalue = [0, 1]"] ;
924 -> 926 ;
927 [label="X[5] <= 0.5\ngini = 0.32\nsamples = 10\nvalue = [8, 2]"] ;
921 -> 927 ;
928 [label="X[52] <= 0.5\ngini = 0.198\nsamples = 9\nvalue = [8, 1]"] ;
927 -> 928 ;
929 [label="gini = 0.0\nsamples = 7\nvalue = [7, 0]"] ;
928 -> 929 ;
930 [label="gini = 0.5\nsamples = 2\nvalue = [1, 1]"] ;
928 -> 930 ;
931 [label="gini = 0.0\nsamples = 1\nvalue = [0, 1]"] ;
927 -> 931 ;
932 [label="gini = 0.0\nsamples = 1\nvalue = [0, 1]"] ;
920 -> 932 ;
933 [label="gini = 0.0\nsamples = 1\nvalue = [0, 1]"] ;
919 -> 933 ;
934 [label="X[23] <= 0.5\ngini = 0.5\nsamples = 10\nvalue = [5, 5]"] ;
918 -> 934 ;
935 [label="gini = 0.0\nsamples = 3\nvalue = [3, 0]"] ;
934 -> 935 ;
936 [label="X[0] <= 0.5\ngini = 0.408\nsamples = 7\nvalue = [2, 5]"] ;
934 -> 936 ;
937 [label="X[47] <= 0.5\ngini = 0.278\nsamples = 6\nvalue = [1, 5]"] ;
936 -> 937 ;
938 [label="gini = 0.0\nsamples = 5\nvalue = [0, 5]"] ;
937 -> 938 ;
939 [label="gini = 0.0\nsamples = 1\nvalue = [1, 0]"] ;
937 -> 939 ;
940 [label="gini = 0.0\nsamples = 1\nvalue = [1, 0]"] ;
936 -> 940 ;
941 [label="X[14] <= 0.5\ngini = 0.393\nsamples = 67\nvalue = [49, 18]"] ;
471 -> 941 ;
942 [label="X[18] <= 0.5\ngini = 0.42\nsamples = 60\nvalue = [42, 18]"] ;
941 -> 942 ;
943 [label="X[23] <= 0.5\ngini = 0.458\nsamples = 45\nvalue = [29, 16]"] ;
942 -> 943 ;
944 [label="X[5] <= 0.5\ngini = 0.291\nsamples = 17\nvalue = [14, 3]"] ;
943 -> 944 ;
945 [label="X[29] <= 0.5\ngini = 0.219\nsamples = 16\nvalue = [14, 2]"] ;
944 -> 945 ;
946 [label="X[22] <= 0.5\ngini = 0.142\nsamples = 13\nvalue = [12, 1]"] ;
945 -> 946 ;
947 [label="gini = 0.0\nsamples = 6\nvalue = [6, 0]"] ;
946 -> 947 ;
948 [label="X[2] <= 0.5\ngini = 0.245\nsamples = 7\nvalue = [6, 1]"] ;
946 -> 948 ;
949 [label="gini = 0.0\nsamples = 3\nvalue = [3, 0]"] ;
948 -> 949 ;
950 [label="X[45] <= 0.5\ngini = 0.375\nsamples = 4\nvalue = [3, 1]"] ;
948 -> 950 ;
951 [label="gini = 0.0\nsamples = 2\nvalue = [2, 0]"] ;
950 -> 951 ;
952 [label="gini = 0.5\nsamples = 2\nvalue = [1, 1]"] ;
950 -> 952 ;
953 [label="X[22] <= 0.5\ngini = 0.444\nsamples = 3\nvalue = [2, 1]"] ;
945 -> 953 ;
954 [label="gini = 0.0\nsamples = 1\nvalue = [0, 1]"] ;
953 -> 954 ;
955 [label="gini = 0.0\nsamples = 2\nvalue = [2, 0]"] ;
953 -> 955 ;
956 [label="gini = 0.0\nsamples = 1\nvalue = [0, 1]"] ;
944 -> 956 ;
957 [label="X[2] <= 0.5\ngini = 0.497\nsamples = 28\nvalue = [15, 13]"] ;
943 -> 957 ;
958 [label="X[5] <= 0.5\ngini = 0.32\nsamples = 5\nvalue = [1, 4]"] ;
957 -> 958 ;
959 [label="gini = 0.0\nsamples = 4\nvalue = [0, 4]"] ;
958 -> 959 ;
960 [label="gini = 0.0\nsamples = 1\nvalue = [1, 0]"] ;
958 -> 960 ;
961 [label="X[67] <= 0.5\ngini = 0.476\nsamples = 23\nvalue = [14, 9]"] ;
957 -> 961 ;
962 [label="X[8] <= 0.5\ngini = 0.463\nsamples = 22\nvalue = [14, 8]"] ;
961 -> 962 ;
963 [label="X[7] <= 0.5\ngini = 0.444\nsamples = 21\nvalue = [14, 7]"] ;
962 -> 963 ;
964 [label="X[45] <= 0.5\ngini = 0.42\nsamples = 20\nvalue = [14, 6]"] ;
963 -> 964 ;
965 [label="gini = 0.0\nsamples = 5\nvalue = [5, 0]"] ;
964 -> 965 ;
966 [label="X[15] <= 0.5\ngini = 0.48\nsamples = 15\nvalue = [9, 6]"] ;
964 -> 966 ;
967 [label="gini = 0.486\nsamples = 12\nvalue = [7, 5]"] ;
966 -> 967 ;
968 [label="gini = 0.444\nsamples = 3\nvalue = [2, 1]"] ;
966 -> 968 ;
969 [label="gini = 0.0\nsamples = 1\nvalue = [0, 1]"] ;
963 -> 969 ;
970 [label="gini = 0.0\nsamples = 1\nvalue = [0, 1]"] ;
962 -> 970 ;
971 [label="gini = 0.0\nsamples = 1\nvalue = [0, 1]"] ;
961 -> 971 ;
972 [label="X[80] <= 0.5\ngini = 0.231\nsamples = 15\nvalue = [13, 2]"] ;
942 -> 972 ;
973 [label="X[2] <= 0.5\ngini = 0.133\nsamples = 14\nvalue = [13, 1]"] ;
972 -> 973 ;
974 [label="gini = 0.0\nsamples = 5\nvalue = [5, 0]"] ;
973 -> 974 ;
975 [label="X[48] <= 0.5\ngini = 0.198\nsamples = 9\nvalue = [8, 1]"] ;
973 -> 975 ;
976 [label="X[23] <= 0.5\ngini = 0.245\nsamples = 7\nvalue = [6, 1]"] ;
975 -> 976 ;
977 [label="gini = 0.0\nsamples = 1\nvalue = [1, 0]"] ;
976 -> 977 ;
978 [label="gini = 0.278\nsamples = 6\nvalue = [5, 1]"] ;
976 -> 978 ;
979 [label="gini = 0.0\nsamples = 2\nvalue = [2, 0]"] ;
975 -> 979 ;
980 [label="gini = 0.0\nsamples = 1\nvalue = [0, 1]"] ;
972 -> 980 ;
981 [label="gini = 0.0\nsamples = 7\nvalue = [7, 0]"] ;
941 -> 981 ;
982 [label="X[0] <= 0.5\ngini = 0.337\nsamples = 163\nvalue = [128, 35]"] ;
470 -> 982 ;
983 [label="X[76] <= 0.5\ngini = 0.318\nsamples = 156\nvalue = [125, 31]"] ;
982 -> 983 ;
984 [label="X[52] <= 0.5\ngini = 0.312\nsamples = 155\nvalue = [125, 30]"] ;
983 -> 984 ;
985 [label="X[7] <= 0.5\ngini = 0.327\nsamples = 146\nvalue = [116, 30]"] ;
984 -> 985 ;
986 [label="X[45] <= 0.5\ngini = 0.32\nsamples = 145\nvalue = [116, 29]"] ;
985 -> 986 ;
987 [label="X[29] <= 0.5\ngini = 0.193\nsamples = 37\nvalue = [33, 4]"] ;
986 -> 987 ;
988 [label="X[22] <= 0.5\ngini = 0.117\nsamples = 32\nvalue = [30, 2]"] ;
987 -> 988 ;
989 [label="gini = 0.0\nsamples = 22\nvalue = [22, 0]"] ;
988 -> 989 ;
990 [label="X[1] <= 0.5\ngini = 0.32\nsamples = 10\nvalue = [8, 2]"] ;
988 -> 990 ;
991 [label="X[3] <= 0.5\ngini = 0.198\nsamples = 9\nvalue = [8, 1]"] ;
990 -> 991 ;
992 [label="gini = 0.0\nsamples = 8\nvalue = [8, 0]"] ;
991 -> 992 ;
993 [label="gini = 0.0\nsamples = 1\nvalue = [0, 1]"] ;
991 -> 993 ;
994 [label="gini = 0.0\nsamples = 1\nvalue = [0, 1]"] ;
990 -> 994 ;
995 [label="X[48] <= 0.5\ngini = 0.48\nsamples = 5\nvalue = [3, 2]"] ;
987 -> 995 ;
996 [label="gini = 0.0\nsamples = 2\nvalue = [2, 0]"] ;
995 -> 996 ;
997 [label="X[3] <= 0.5\ngini = 0.444\nsamples = 3\nvalue = [1, 2]"] ;
995 -> 997 ;
998 [label="gini = 0.0\nsamples = 2\nvalue = [0, 2]"] ;
997 -> 998 ;
999 [label="gini = 0.0\nsamples = 1\nvalue = [1, 0]"] ;
997 -> 999 ;
1000 [label="X[15] <= 0.5\ngini = 0.356\nsamples = 108\nvalue = [83, 25]"] ;
986 -> 1000 ;
1001 [label="X[18] <= 0.5\ngini = 0.337\nsamples = 98\nvalue = [77, 21]"] ;
1000 -> 1001 ;
1002 [label="X[95] <= 0.5\ngini = 0.375\nsamples = 56\nvalue = [42, 14]"] ;
1001 -> 1002 ;
1003 [label="gini = 0.0\nsamples = 3\nvalue = [3, 0]"] ;
1002 -> 1003 ;
1004 [label="X[23] <= 0.5\ngini = 0.389\nsamples = 53\nvalue = [39, 14]"] ;
1002 -> 1004 ;
1005 [label="X[14] <= 0.5\ngini = 0.48\nsamples = 10\nvalue = [6, 4]"] ;
1004 -> 1005 ;
1006 [label="X[28] <= 0.5\ngini = 0.49\nsamples = 7\nvalue = [3, 4]"] ;
1005 -> 1006 ;
1007 [label="X[3] <= 0.5\ngini = 0.48\nsamples = 5\nvalue = [3, 2]"] ;
1006 -> 1007 ;
1008 [label="X[12] <= 0.5\ngini = 0.375\nsamples = 4\nvalue = [3, 1]"] ;
1007 -> 1008 ;
1009 [label="gini = 0.0\nsamples = 3\nvalue = [3, 0]"] ;
1008 -> 1009 ;
1010 [label="gini = 0.0\nsamples = 1\nvalue = [0, 1]"] ;
1008 -> 1010 ;
1011 [label="gini = 0.0\nsamples = 1\nvalue = [0, 1]"] ;
1007 -> 1011 ;
1012 [label="gini = 0.0\nsamples = 2\nvalue = [0, 2]"] ;
1006 -> 1012 ;
1013 [label="gini = 0.0\nsamples = 3\nvalue = [3, 0]"] ;
1005 -> 1013 ;
1014 [label="X[1] <= 0.5\ngini = 0.357\nsamples = 43\nvalue = [33, 10]"] ;
1004 -> 1014 ;
1015 [label="X[14] <= 0.5\ngini = 0.32\nsamples = 40\nvalue = [32, 8]"] ;
1014 -> 1015 ;
1016 [label="X[22] <= 0.5\ngini = 0.291\nsamples = 34\nvalue = [28, 6]"] ;
1015 -> 1016 ;
1017 [label="gini = 0.0\nsamples = 4\nvalue = [4, 0]"] ;
1016 -> 1017 ;
1018 [label="X[4] <= 0.5\ngini = 0.32\nsamples = 30\nvalue = [24, 6]"] ;
1016 -> 1018 ;
1019 [label="X[3] <= 0.5\ngini = 0.302\nsamples = 27\nvalue = [22, 5]"] ;
1018 -> 1019 ;
1020 [label="gini = 0.298\nsamples = 22\nvalue = [18, 4]"] ;
1019 -> 1020 ;
1021 [label="gini = 0.32\nsamples = 5\nvalue = [4, 1]"] ;
1019 -> 1021 ;
1022 [label="gini = 0.444\nsamples = 3\nvalue = [2, 1]"] ;
1018 -> 1022 ;
1023 [label="X[2] <= 0.5\ngini = 0.444\nsamples = 6\nvalue = [4, 2]"] ;
1015 -> 1023 ;
1024 [label="gini = 0.0\nsamples = 2\nvalue = [2, 0]"] ;
1023 -> 1024 ;
1025 [label="gini = 0.5\nsamples = 4\nvalue = [2, 2]"] ;
1023 -> 1025 ;
1026 [label="X[22] <= 0.5\ngini = 0.444\nsamples = 3\nvalue = [1, 2]"] ;
1014 -> 1026 ;
1027 [label="gini = 0.0\nsamples = 1\nvalue = [0, 1]"] ;
1026 -> 1027 ;
1028 [label="gini = 0.5\nsamples = 2\nvalue = [1, 1]"] ;
1026 -> 1028 ;
1029 [label="X[28] <= 0.5\ngini = 0.278\nsamples = 42\nvalue = [35, 7]"] ;
1001 -> 1029 ;
1030 [label="X[3] <= 0.5\ngini = 0.255\nsamples = 40\nvalue = [34, 6]"] ;
1029 -> 1030 ;
1031 [label="X[23] <= 0.5\ngini = 0.208\nsamples = 34\nvalue = [30, 4]"] ;
1030 -> 1031 ;
1032 [label="gini = 0.0\nsamples = 5\nvalue = [5, 0]"] ;
1031 -> 1032 ;
1033 [label="X[4] <= 0.5\ngini = 0.238\nsamples = 29\nvalue = [25, 4]"] ;
1031 -> 1033 ;
1034 [label="X[2] <= 0.5\ngini = 0.211\nsamples = 25\nvalue = [22, 3]"] ;
1033 -> 1034 ;
1035 [label="gini = 0.0\nsamples = 4\nvalue = [4, 0]"] ;
1034 -> 1035 ;
1036 [label="gini = 0.245\nsamples = 21\nvalue = [18, 3]"] ;
1034 -> 1036 ;
1037 [label="gini = 0.375\nsamples = 4\nvalue = [3, 1]"] ;
1033 -> 1037 ;
1038 [label="gini = 0.444\nsamples = 6\nvalue = [4, 2]"] ;
1030 -> 1038 ;
1039 [label="X[2] <= 0.5\ngini = 0.5\nsamples = 2\nvalue = [1, 1]"] ;
1029 -> 1039 ;
1040 [label="gini = 0.0\nsamples = 1\nvalue = [1, 0]"] ;
1039 -> 1040 ;
1041 [label="gini = 0.0\nsamples = 1\nvalue = [0, 1]"] ;
1039 -> 1041 ;
1042 [label="X[2] <= 0.5\ngini = 0.48\nsamples = 10\nvalue = [6, 4]"] ;
1000 -> 1042 ;
1043 [label="gini = 0.0\nsamples = 3\nvalue = [3, 0]"] ;
1042 -> 1043 ;
1044 [label="gini = 0.49\nsamples = 7\nvalue = [3, 4]"] ;
1042 -> 1044 ;
1045 [label="gini = 0.0\nsamples = 1\nvalue = [0, 1]"] ;
985 -> 1045 ;
1046 [label="gini = 0.0\nsamples = 9\nvalue = [9, 0]"] ;
984 -> 1046 ;
1047 [label="gini = 0.0\nsamples = 1\nvalue = [0, 1]"] ;
983 -> 1047 ;
1048 [label="X[29] <= 0.5\ngini = 0.49\nsamples = 7\nvalue = [3, 4]"] ;
982 -> 1048 ;
1049 [label="X[22] <= 0.5\ngini = 0.444\nsamples = 6\nvalue = [2, 4]"] ;
1048 -> 1049 ;
1050 [label="gini = 0.0\nsamples = 2\nvalue = [0, 2]"] ;
1049 -> 1050 ;
1051 [label="X[28] <= 0.5\ngini = 0.5\nsamples = 4\nvalue = [2, 2]"] ;
1049 -> 1051 ;
1052 [label="X[45] <= 0.5\ngini = 0.444\nsamples = 3\nvalue = [2, 1]"] ;
1051 -> 1052 ;
1053 [label="gini = 0.5\nsamples = 2\nvalue = [1, 1]"] ;
1052 -> 1053 ;
1054 [label="gini = 0.0\nsamples = 1\nvalue = [1, 0]"] ;
1052 -> 1054 ;
1055 [label="gini = 0.0\nsamples = 1\nvalue = [0, 1]"] ;
1051 -> 1055 ;
1056 [label="gini = 0.0\nsamples = 1\nvalue = [1, 0]"] ;
1048 -> 1056 ;
1057 [label="X[45] <= 0.5\ngini = 0.037\nsamples = 7476\nvalue = [7336, 140]"] ;
5 -> 1057 ;
1058 [label="X[59] <= 0.5\ngini = 0.012\nsamples = 4614\nvalue = [4586, 28]"] ;
1057 -> 1058 ;
1059 [label="X[4] <= 0.5\ngini = 0.012\nsamples = 4611\nvalue = [4584, 27]"] ;
1058 -> 1059 ;
1060 [label="X[32] <= 0.5\ngini = 0.009\nsamples = 4464\nvalue = [4443, 21]"] ;
1059 -> 1060 ;
1061 [label="X[69] <= 0.5\ngini = 0.007\nsamples = 4080\nvalue = [4066, 14]"] ;
1060 -> 1061 ;
1062 [label="X[40] <= 0.5\ngini = 0.006\nsamples = 4061\nvalue = [4048, 13]"] ;
1061 -> 1062 ;
1063 [label="X[48] <= 0.5\ngini = 0.006\nsamples = 3986\nvalue = [3975, 11]"] ;
1062 -> 1063 ;
1064 [label="X[3] <= 0.5\ngini = 0.003\nsamples = 3383\nvalue = [3378, 5]"] ;
1063 -> 1064 ;
1065 [label="X[30] <= 0.5\ngini = 0.002\nsamples = 3351\nvalue = [3347, 4]"] ;
1064 -> 1065 ;
1066 [label="X[37] <= 0.5\ngini = 0.001\nsamples = 2722\nvalue = [2721, 1]"] ;
1065 -> 1066 ;
1067 [label="gini = 0.0\nsamples = 1848\nvalue = [1848, 0]"] ;
1066 -> 1067 ;
1068 [label="X[22] <= 0.5\ngini = 0.002\nsamples = 874\nvalue = [873, 1]"] ;
1066 -> 1068 ;
1069 [label="gini = 0.0\nsamples = 575\nvalue = [575, 0]"] ;
1068 -> 1069 ;
1070 [label="X[55] <= 0.5\ngini = 0.007\nsamples = 299\nvalue = [298, 1]"] ;
1068 -> 1070 ;
1071 [label="X[54] <= 0.5\ngini = 0.015\nsamples = 133\nvalue = [132, 1]"] ;
1070 -> 1071 ;
1072 [label="gini = 0.0\nsamples = 22\nvalue = [22, 0]"] ;
1071 -> 1072 ;
1073 [label="X[95] <= 0.5\ngini = 0.018\nsamples = 111\nvalue = [110, 1]"] ;
1071 -> 1073 ;
1074 [label="gini = 0.0\nsamples = 9\nvalue = [9, 0]"] ;
1073 -> 1074 ;
1075 [label="X[2] <= 0.5\ngini = 0.019\nsamples = 102\nvalue = [101, 1]"] ;
1073 -> 1075 ;
1076 [label="gini = 0.0\nsamples = 6\nvalue = [6, 0]"] ;
1075 -> 1076 ;
1077 [label="X[46] <= 0.5\ngini = 0.021\nsamples = 96\nvalue = [95, 1]"] ;
1075 -> 1077 ;
1078 [label="gini = 0.021\nsamples = 94\nvalue = [93, 1]"] ;
1077 -> 1078 ;
1079 [label="gini = 0.0\nsamples = 2\nvalue = [2, 0]"] ;
1077 -> 1079 ;
1080 [label="gini = 0.0\nsamples = 166\nvalue = [166, 0]"] ;
1070 -> 1080 ;
1081 [label="X[15] <= 0.5\ngini = 0.009\nsamples = 629\nvalue = [626, 3]"] ;
1065 -> 1081 ;
1082 [label="X[55] <= 0.5\ngini = 0.007\nsamples = 602\nvalue = [600, 2]"] ;
1081 -> 1082 ;
1083 [label="gini = 0.0\nsamples = 201\nvalue = [201, 0]"] ;
1082 -> 1083 ;
1084 [label="X[54] <= 0.5\ngini = 0.01\nsamples = 401\nvalue = [399, 2]"] ;
1082 -> 1084 ;
1085 [label="gini = 0.0\nsamples = 80\nvalue = [80, 0]"] ;
1084 -> 1085 ;
1086 [label="X[2] <= 0.5\ngini = 0.012\nsamples = 321\nvalue = [319, 2]"] ;
1084 -> 1086 ;
1087 [label="gini = 0.0\nsamples = 43\nvalue = [43, 0]"] ;
1086 -> 1087 ;
1088 [label="X[47] <= 0.5\ngini = 0.014\nsamples = 278\nvalue = [276, 2]"] ;
1086 -> 1088 ;
1089 [label="gini = 0.0\nsamples = 26\nvalue = [26, 0]"] ;
1088 -> 1089 ;
1090 [label="X[18] <= 0.5\ngini = 0.016\nsamples = 252\nvalue = [250, 2]"] ;
1088 -> 1090 ;
1091 [label="X[22] <= 0.5\ngini = 0.012\nsamples = 160\nvalue = [159, 1]"] ;
1090 -> 1091 ;
1092 [label="gini = 0.0\nsamples = 32\nvalue = [32, 0]"] ;
1091 -> 1092 ;
1093 [label="X[95] <= 0.5\ngini = 0.016\nsamples = 128\nvalue = [127, 1]"] ;
1091 -> 1093 ;
1094 [label="gini = 0.0\nsamples = 5\nvalue = [5, 0]"] ;
1093 -> 1094 ;
1095 [label="gini = 0.016\nsamples = 123\nvalue = [122, 1]"] ;
1093 -> 1095 ;
1096 [label="X[95] <= 0.5\ngini = 0.022\nsamples = 92\nvalue = [91, 1]"] ;
1090 -> 1096 ;
1097 [label="gini = 0.0\nsamples = 2\nvalue = [2, 0]"] ;
1096 -> 1097 ;
1098 [label="gini = 0.022\nsamples = 90\nvalue = [89, 1]"] ;
1096 -> 1098 ;
1099 [label="X[54] <= 0.5\ngini = 0.071\nsamples = 27\nvalue = [26, 1]"] ;
1081 -> 1099 ;
1100 [label="gini = 0.0\nsamples = 5\nvalue = [5, 0]"] ;
1099 -> 1100 ;
1101 [label="X[2] <= 0.5\ngini = 0.087\nsamples = 22\nvalue = [21, 1]"] ;
1099 -> 1101 ;
1102 [label="gini = 0.0\nsamples = 3\nvalue = [3, 0]"] ;
1101 -> 1102 ;
1103 [label="X[46] <= 0.5\ngini = 0.1\nsamples = 19\nvalue = [18, 1]"] ;
1101 -> 1103 ;
1104 [label="gini = 0.105\nsamples = 18\nvalue = [17, 1]"] ;
1103 -> 1104 ;
1105 [label="gini = 0.0\nsamples = 1\nvalue = [1, 0]"] ;
1103 -> 1105 ;
1106 [label="X[47] <= 0.5\ngini = 0.061\nsamples = 32\nvalue = [31, 1]"] ;
1064 -> 1106 ;
1107 [label="X[8] <= 0.5\ngini = 0.5\nsamples = 2\nvalue = [1, 1]"] ;
1106 -> 1107 ;
1108 [label="gini = 0.0\nsamples = 1\nvalue = [1, 0]"] ;
1107 -> 1108 ;
1109 [label="gini = 0.0\nsamples = 1\nvalue = [0, 1]"] ;
1107 -> 1109 ;
1110 [label="gini = 0.0\nsamples = 30\nvalue = [30, 0]"] ;
1106 -> 1110 ;
1111 [label="X[55] <= 0.5\ngini = 0.02\nsamples = 603\nvalue = [597, 6]"] ;
1063 -> 1111 ;
1112 [label="X[39] <= 0.5\ngini = 0.058\nsamples = 166\nvalue = [161, 5]"] ;
1111 -> 1112 ;
1113 [label="X[33] <= 0.5\ngini = 0.048\nsamples = 163\nvalue = [159, 4]"] ;
1112 -> 1113 ;
1114 [label="X[7] <= 0.5\ngini = 0.038\nsamples = 155\nvalue = [152, 3]"] ;
1113 -> 1114 ;
1115 [label="X[41] <= 0.5\ngini = 0.027\nsamples = 144\nvalue = [142, 2]"] ;
1114 -> 1115 ;
1116 [label="X[22] <= 0.5\ngini = 0.016\nsamples = 124\nvalue = [123, 1]"] ;
1115 -> 1116 ;
1117 [label="gini = 0.0\nsamples = 106\nvalue = [106, 0]"] ;
1116 -> 1117 ;
1118 [label="X[30] <= 0.5\ngini = 0.105\nsamples = 18\nvalue = [17, 1]"] ;
1116 -> 1118 ;
1119 [label="gini = 0.0\nsamples = 11\nvalue = [11, 0]"] ;
1118 -> 1119 ;
1120 [label="X[54] <= 0.5\ngini = 0.245\nsamples = 7\nvalue = [6, 1]"] ;
1118 -> 1120 ;
1121 [label="gini = 0.0\nsamples = 2\nvalue = [2, 0]"] ;
1120 -> 1121 ;
1122 [label="X[0] <= 0.5\ngini = 0.32\nsamples = 5\nvalue = [4, 1]"] ;
1120 -> 1122 ;
1123 [label="gini = 0.375\nsamples = 4\nvalue = [3, 1]"] ;
1122 -> 1123 ;
1124 [label="gini = 0.0\nsamples = 1\nvalue = [1, 0]"] ;
1122 -> 1124 ;
1125 [label="X[18] <= 0.5\ngini = 0.095\nsamples = 20\nvalue = [19, 1]"] ;
1115 -> 1125 ;
1126 [label="gini = 0.0\nsamples = 10\nvalue = [10, 0]"] ;
1125 -> 1126 ;
1127 [label="X[54] <= 0.5\ngini = 0.18\nsamples = 10\nvalue = [9, 1]"] ;
1125 -> 1127 ;
1128 [label="gini = 0.0\nsamples = 2\nvalue = [2, 0]"] ;
1127 -> 1128 ;
1129 [label="gini = 0.219\nsamples = 8\nvalue = [7, 1]"] ;
1127 -> 1129 ;
1130 [label="X[43] <= 0.5\ngini = 0.165\nsamples = 11\nvalue = [10, 1]"] ;
1114 -> 1130 ;
1131 [label="gini = 0.0\nsamples = 9\nvalue = [9, 0]"] ;
1130 -> 1131 ;
1132 [label="gini = 0.5\nsamples = 2\nvalue = [1, 1]"] ;
1130 -> 1132 ;
1133 [label="X[18] <= 0.5\ngini = 0.219\nsamples = 8\nvalue = [7, 1]"] ;
1113 -> 1133 ;
1134 [label="gini = 0.0\nsamples = 5\nvalue = [5, 0]"] ;
1133 -> 1134 ;
1135 [label="X[52] <= 0.5\ngini = 0.444\nsamples = 3\nvalue = [2, 1]"] ;
1133 -> 1135 ;
1136 [label="gini = 0.5\nsamples = 2\nvalue = [1, 1]"] ;
1135 -> 1136 ;
1137 [label="gini = 0.0\nsamples = 1\nvalue = [1, 0]"] ;
1135 -> 1137 ;
1138 [label="X[54] <= 0.5\ngini = 0.444\nsamples = 3\nvalue = [2, 1]"] ;
1112 -> 1138 ;
1139 [label="gini = 0.0\nsamples = 2\nvalue = [2, 0]"] ;
1138 -> 1139 ;
1140 [label="gini = 0.0\nsamples = 1\nvalue = [0, 1]"] ;
1138 -> 1140 ;
1141 [label="X[30] <= 0.5\ngini = 0.005\nsamples = 437\nvalue = [436, 1]"] ;
1111 -> 1141 ;
1142 [label="gini = 0.0\nsamples = 310\nvalue = [310, 0]"] ;
1141 -> 1142 ;
1143 [label="X[54] <= 0.5\ngini = 0.016\nsamples = 127\nvalue = [126, 1]"] ;
1141 -> 1143 ;
1144 [label="gini = 0.0\nsamples = 68\nvalue = [68, 0]"] ;
1143 -> 1144 ;
1145 [label="X[18] <= 0.5\ngini = 0.033\nsamples = 59\nvalue = [58, 1]"] ;
1143 -> 1145 ;
1146 [label="gini = 0.0\nsamples = 24\nvalue = [24, 0]"] ;
1145 -> 1146 ;
1147 [label="X[2] <= 0.5\ngini = 0.056\nsamples = 35\nvalue = [34, 1]"] ;
1145 -> 1147 ;
1148 [label="gini = 0.0\nsamples = 6\nvalue = [6, 0]"] ;
1147 -> 1148 ;
1149 [label="X[95] <= 0.5\ngini = 0.067\nsamples = 29\nvalue = [28, 1]"] ;
1147 -> 1149 ;
1150 [label="gini = 0.0\nsamples = 4\nvalue = [4, 0]"] ;
1149 -> 1150 ;
1151 [label="gini = 0.077\nsamples = 25\nvalue = [24, 1]"] ;
1149 -> 1151 ;
1152 [label="X[1] <= 0.5\ngini = 0.052\nsamples = 75\nvalue = [73, 2]"] ;
1062 -> 1152 ;
1153 [label="gini = 0.0\nsamples = 43\nvalue = [43, 0]"] ;
1152 -> 1153 ;
1154 [label="X[22] <= 0.5\ngini = 0.117\nsamples = 32\nvalue = [30, 2]"] ;
1152 -> 1154 ;
1155 [label="gini = 0.0\nsamples = 18\nvalue = [18, 0]"] ;
1154 -> 1155 ;
1156 [label="X[47] <= 0.5\ngini = 0.245\nsamples = 14\nvalue = [12, 2]"] ;
1154 -> 1156 ;
1157 [label="gini = 0.0\nsamples = 3\nvalue = [3, 0]"] ;
1156 -> 1157 ;
1158 [label="X[56] <= 0.5\ngini = 0.298\nsamples = 11\nvalue = [9, 2]"] ;
1156 -> 1158 ;
1159 [label="X[54] <= 0.5\ngini = 0.444\nsamples = 3\nvalue = [2, 1]"] ;
1158 -> 1159 ;
1160 [label="gini = 0.0\nsamples = 1\nvalue = [1, 0]"] ;
1159 -> 1160 ;
1161 [label="gini = 0.5\nsamples = 2\nvalue = [1, 1]"] ;
1159 -> 1161 ;
1162 [label="gini = 0.219\nsamples = 8\nvalue = [7, 1]"] ;
1158 -> 1162 ;
1163 [label="X[1] <= 0.5\ngini = 0.1\nsamples = 19\nvalue = [18, 1]"] ;
1061 -> 1163 ;
1164 [label="gini = 0.0\nsamples = 17\nvalue = [17, 0]"] ;
1163 -> 1164 ;
1165 [label="X[22] <= 0.5\ngini = 0.5\nsamples = 2\nvalue = [1, 1]"] ;
1163 -> 1165 ;
1166 [label="gini = 0.0\nsamples = 1\nvalue = [0, 1]"] ;
1165 -> 1166 ;
1167 [label="gini = 0.0\nsamples = 1\nvalue = [1, 0]"] ;
1165 -> 1167 ;
1168 [label="X[96] <= 0.5\ngini = 0.036\nsamples = 384\nvalue = [377, 7]"] ;
1060 -> 1168 ;
1169 [label="X[50] <= 0.5\ngini = 0.031\nsamples = 380\nvalue = [374, 6]"] ;
1168 -> 1169 ;
1170 [label="X[48] <= 0.5\ngini = 0.027\nsamples = 371\nvalue = [366, 5]"] ;
1169 -> 1170 ;
1171 [label="X[15] <= 0.5\ngini = 0.019\nsamples = 310\nvalue = [307, 3]"] ;
1170 -> 1171 ;
1172 [label="X[18] <= 0.5\ngini = 0.014\nsamples = 292\nvalue = [290, 2]"] ;
1171 -> 1172 ;
1173 [label="gini = 0.0\nsamples = 131\nvalue = [131, 0]"] ;
1172 -> 1173 ;
1174 [label="X[54] <= 0.5\ngini = 0.025\nsamples = 161\nvalue = [159, 2]"] ;
1172 -> 1174 ;
1175 [label="gini = 0.0\nsamples = 28\nvalue = [28, 0]"] ;
1174 -> 1175 ;
1176 [label="X[46] <= 0.5\ngini = 0.03\nsamples = 133\nvalue = [131, 2]"] ;
1174 -> 1176 ;
1177 [label="X[95] <= 0.5\ngini = 0.035\nsamples = 111\nvalue = [109, 2]"] ;
1176 -> 1177 ;
1178 [label="gini = 0.0\nsamples = 6\nvalue = [6, 0]"] ;
1177 -> 1178 ;
1179 [label="X[55] <= 0.5\ngini = 0.037\nsamples = 105\nvalue = [103, 2]"] ;
1177 -> 1179 ;
1180 [label="X[2] <= 0.5\ngini = 0.039\nsamples = 100\nvalue = [98, 2]"] ;
1179 -> 1180 ;
1181 [label="gini = 0.0\nsamples = 4\nvalue = [4, 0]"] ;
1180 -> 1181 ;
1182 [label="gini = 0.041\nsamples = 96\nvalue = [94, 2]"] ;
1180 -> 1182 ;
1183 [label="gini = 0.0\nsamples = 5\nvalue = [5, 0]"] ;
1179 -> 1183 ;
1184 [label="gini = 0.0\nsamples = 22\nvalue = [22, 0]"] ;
1176 -> 1184 ;
1185 [label="X[52] <= 0.5\ngini = 0.105\nsamples = 18\nvalue = [17, 1]"] ;
1171 -> 1185 ;
1186 [label="X[46] <= 0.5\ngini = 0.117\nsamples = 16\nvalue = [15, 1]"] ;
1185 -> 1186 ;
1187 [label="X[2] <= 0.5\ngini = 0.133\nsamples = 14\nvalue = [13, 1]"] ;
1186 -> 1187 ;
1188 [label="gini = 0.0\nsamples = 2\nvalue = [2, 0]"] ;
1187 -> 1188 ;
1189 [label="gini = 0.153\nsamples = 12\nvalue = [11, 1]"] ;
1187 -> 1189 ;
1190 [label="gini = 0.0\nsamples = 2\nvalue = [2, 0]"] ;
1186 -> 1190 ;
1191 [label="gini = 0.0\nsamples = 2\nvalue = [2, 0]"] ;
1185 -> 1191 ;
1192 [label="X[56] <= 0.5\ngini = 0.063\nsamples = 61\nvalue = [59, 2]"] ;
1170 -> 1192 ;
1193 [label="X[22] <= 0.5\ngini = 0.165\nsamples = 11\nvalue = [10, 1]"] ;
1192 -> 1193 ;
1194 [label="gini = 0.0\nsamples = 9\nvalue = [9, 0]"] ;
1193 -> 1194 ;
1195 [label="gini = 0.5\nsamples = 2\nvalue = [1, 1]"] ;
1193 -> 1195 ;
1196 [label="X[18] <= 0.5\ngini = 0.039\nsamples = 50\nvalue = [49, 1]"] ;
1192 -> 1196 ;
1197 [label="gini = 0.0\nsamples = 28\nvalue = [28, 0]"] ;
1196 -> 1197 ;
1198 [label="X[2] <= 0.5\ngini = 0.087\nsamples = 22\nvalue = [21, 1]"] ;
1196 -> 1198 ;
1199 [label="gini = 0.0\nsamples = 3\nvalue = [3, 0]"] ;
1198 -> 1199 ;
1200 [label="X[95] <= 0.5\ngini = 0.1\nsamples = 19\nvalue = [18, 1]"] ;
1198 -> 1200 ;
1201 [label="gini = 0.0\nsamples = 2\nvalue = [2, 0]"] ;
1200 -> 1201 ;
1202 [label="gini = 0.111\nsamples = 17\nvalue = [16, 1]"] ;
1200 -> 1202 ;
1203 [label="X[46] <= 0.5\ngini = 0.198\nsamples = 9\nvalue = [8, 1]"] ;
1169 -> 1203 ;
1204 [label="gini = 0.0\nsamples = 7\nvalue = [7, 0]"] ;
1203 -> 1204 ;
1205 [label="X[2] <= 0.5\ngini = 0.5\nsamples = 2\nvalue = [1, 1]"] ;
1203 -> 1205 ;
1206 [label="gini = 0.0\nsamples = 1\nvalue = [1, 0]"] ;
1205 -> 1206 ;
1207 [label="gini = 0.0\nsamples = 1\nvalue = [0, 1]"] ;
1205 -> 1207 ;
1208 [label="X[8] <= 0.5\ngini = 0.375\nsamples = 4\nvalue = [3, 1]"] ;
1168 -> 1208 ;
1209 [label="gini = 0.0\nsamples = 3\nvalue = [3, 0]"] ;
1208 -> 1209 ;
1210 [label="gini = 0.0\nsamples = 1\nvalue = [0, 1]"] ;
1208 -> 1210 ;
1211 [label="X[62] <= 0.5\ngini = 0.078\nsamples = 147\nvalue = [141, 6]"] ;
1059 -> 1211 ;
1212 [label="X[36] <= 0.5\ngini = 0.066\nsamples = 146\nvalue = [141, 5]"] ;
1211 -> 1212 ;
1213 [label="X[41] <= 0.5\ngini = 0.055\nsamples = 142\nvalue = [138, 4]"] ;
1212 -> 1213 ;
1214 [label="X[14] <= 0.5\ngini = 0.031\nsamples = 128\nvalue = [126, 2]"] ;
1213 -> 1214 ;
1215 [label="X[48] <= 0.5\ngini = 0.016\nsamples = 123\nvalue = [122, 1]"] ;
1214 -> 1215 ;
1216 [label="gini = 0.0\nsamples = 103\nvalue = [103, 0]"] ;
1215 -> 1216 ;
1217 [label="X[32] <= 0.5\ngini = 0.095\nsamples = 20\nvalue = [19, 1]"] ;
1215 -> 1217 ;
1218 [label="gini = 0.0\nsamples = 16\nvalue = [16, 0]"] ;
1217 -> 1218 ;
1219 [label="X[22] <= 0.5\ngini = 0.375\nsamples = 4\nvalue = [3, 1]"] ;
1217 -> 1219 ;
1220 [label="gini = 0.0\nsamples = 1\nvalue = [0, 1]"] ;
1219 -> 1220 ;
1221 [label="gini = 0.0\nsamples = 3\nvalue = [3, 0]"] ;
1219 -> 1221 ;
1222 [label="X[47] <= 0.5\ngini = 0.32\nsamples = 5\nvalue = [4, 1]"] ;
1214 -> 1222 ;
1223 [label="gini = 0.0\nsamples = 1\nvalue = [0, 1]"] ;
1222 -> 1223 ;
1224 [label="gini = 0.0\nsamples = 4\nvalue = [4, 0]"] ;
1222 -> 1224 ;
1225 [label="X[54] <= 0.5\ngini = 0.245\nsamples = 14\nvalue = [12, 2]"] ;
1213 -> 1225 ;
1226 [label="X[56] <= 0.5\ngini = 0.444\nsamples = 6\nvalue = [4, 2]"] ;
1225 -> 1226 ;
1227 [label="gini = 0.0\nsamples = 3\nvalue = [3, 0]"] ;
1226 -> 1227 ;
1228 [label="X[91] <= 0.5\ngini = 0.444\nsamples = 3\nvalue = [1, 2]"] ;
1226 -> 1228 ;
1229 [label="gini = 0.0\nsamples = 2\nvalue = [0, 2]"] ;
1228 -> 1229 ;
1230 [label="gini = 0.0\nsamples = 1\nvalue = [1, 0]"] ;
1228 -> 1230 ;
1231 [label="gini = 0.0\nsamples = 8\nvalue = [8, 0]"] ;
1225 -> 1231 ;
1232 [label="X[18] <= 0.5\ngini = 0.375\nsamples = 4\nvalue = [3, 1]"] ;
1212 -> 1232 ;
1233 [label="gini = 0.0\nsamples = 2\nvalue = [2, 0]"] ;
1232 -> 1233 ;
1234 [label="X[46] <= 0.5\ngini = 0.5\nsamples = 2\nvalue = [1, 1]"] ;
1232 -> 1234 ;
1235 [label="gini = 0.0\nsamples = 1\nvalue = [0, 1]"] ;
1234 -> 1235 ;
1236 [label="gini = 0.0\nsamples = 1\nvalue = [1, 0]"] ;
1234 -> 1236 ;
1237 [label="gini = 0.0\nsamples = 1\nvalue = [0, 1]"] ;
1211 -> 1237 ;
1238 [label="X[42] <= 0.5\ngini = 0.444\nsamples = 3\nvalue = [2, 1]"] ;
1058 -> 1238 ;
1239 [label="gini = 0.0\nsamples = 2\nvalue = [2, 0]"] ;
1238 -> 1239 ;
1240 [label="gini = 0.0\nsamples = 1\nvalue = [0, 1]"] ;
1238 -> 1240 ;
1241 [label="X[2] <= 0.5\ngini = 0.075\nsamples = 2862\nvalue = [2750, 112]"] ;
1057 -> 1241 ;
1242 [label="X[40] <= 0.5\ngini = 0.16\nsamples = 456\nvalue = [416, 40]"] ;
1241 -> 1242 ;
1243 [label="X[56] <= 0.5\ngini = 0.142\nsamples = 416\nvalue = [384, 32]"] ;
1242 -> 1243 ;
1244 [label="X[43] <= 0.5\ngini = 0.045\nsamples = 131\nvalue = [128, 3]"] ;
1243 -> 1244 ;
1245 [label="X[0] <= 0.5\ngini = 0.03\nsamples = 130\nvalue = [128, 2]"] ;
1244 -> 1245 ;
1246 [label="gini = 0.0\nsamples = 105\nvalue = [105, 0]"] ;
1245 -> 1246 ;
1247 [label="X[15] <= 0.5\ngini = 0.147\nsamples = 25\nvalue = [23, 2]"] ;
1245 -> 1247 ;
1248 [label="X[37] <= 0.5\ngini = 0.083\nsamples = 23\nvalue = [22, 1]"] ;
1247 -> 1248 ;
1249 [label="gini = 0.0\nsamples = 20\nvalue = [20, 0]"] ;
1248 -> 1249 ;
1250 [label="X[18] <= 0.5\ngini = 0.444\nsamples = 3\nvalue = [2, 1]"] ;
1248 -> 1250 ;
1251 [label="gini = 0.5\nsamples = 2\nvalue = [1, 1]"] ;
1250 -> 1251 ;
1252 [label="gini = 0.0\nsamples = 1\nvalue = [1, 0]"] ;
1250 -> 1252 ;
1253 [label="X[33] <= 0.5\ngini = 0.5\nsamples = 2\nvalue = [1, 1]"] ;
1247 -> 1253 ;
1254 [label="gini = 0.0\nsamples = 1\nvalue = [0, 1]"] ;
1253 -> 1254 ;
1255 [label="gini = 0.0\nsamples = 1\nvalue = [1, 0]"] ;
1253 -> 1255 ;
1256 [label="gini = 0.0\nsamples = 1\nvalue = [0, 1]"] ;
1244 -> 1256 ;
1257 [label="X[39] <= 0.5\ngini = 0.183\nsamples = 285\nvalue = [256, 29]"] ;
1243 -> 1257 ;
1258 [label="X[33] <= 0.5\ngini = 0.161\nsamples = 260\nvalue = [237, 23]"] ;
1257 -> 1258 ;
1259 [label="X[18] <= 0.5\ngini = 0.127\nsamples = 221\nvalue = [206, 15]"] ;
1258 -> 1259 ;
1260 [label="X[8] <= 0.5\ngini = 0.074\nsamples = 130\nvalue = [125, 5]"] ;
1259 -> 1260 ;
1261 [label="X[7] <= 0.5\ngini = 0.062\nsamples = 124\nvalue = [120, 4]"] ;
1260 -> 1261 ;
1262 [label="X[42] <= 0.5\ngini = 0.05\nsamples = 117\nvalue = [114, 3]"] ;
1261 -> 1262 ;
1263 [label="X[0] <= 0.5\ngini = 0.037\nsamples = 107\nvalue = [105, 2]"] ;
1262 -> 1263 ;
1264 [label="X[32] <= 0.5\ngini = 0.022\nsamples = 92\nvalue = [91, 1]"] ;
1263 -> 1264 ;
1265 [label="gini = 0.0\nsamples = 63\nvalue = [63, 0]"] ;
1264 -> 1265 ;
1266 [label="X[22] <= 0.5\ngini = 0.067\nsamples = 29\nvalue = [28, 1]"] ;
1264 -> 1266 ;
1267 [label="gini = 0.0\nsamples = 11\nvalue = [11, 0]"] ;
